131 128
0 0.094607450068 -0.324597507715 0.0408969260752 -0.015054602176 -0.171352401376 0.155365511775 -0.127355635166 -0.158760532737 -0.252003073692 0.196657016873 -0.138674080372 -0.0959571525455 0.00162885570899 0.120628885925 -0.279206156731 -0.124490976334 0.121916048229 0.138738378882 -0.100988313556 -0.273176431656 0.0993093848228 0.00492977816612 -0.0190193206072 -0.0281117223203 0.10179387033 -0.0192508995533 -0.167404711246 0.152631521225 0.244873195887 0.140442460775 0.229316487908 0.120517700911 -0.158815011382 -0.238079816103 -0.1378518641 0.164579719305 -0.196222618222 0.142605736852 -0.0337323062122 0.13543766737 -0.0376079976559 0.164072796702 0.147689327598 -0.0232943147421 -0.0197487231344 -0.152350008488 -0.00898703467101 0.208312109113 -0.196342408657 0.0681252777576 0.0514533668756 -0.183395132422 -0.173052981496 0.121906653047 0.00280913989991 0.21073590219 0.287309080362 0.299685895443 -0.131346493959 0.100491784513 -0.169058948755 0.0126379672438 -0.040505066514 0.0131431752816 0.0856418088078 -0.276268810034 0.0111704906449 -0.0228494107723 0.0947767198086 0.213471159339 -0.186665460467 0.211703851819 0.0362047217786 -0.185692697763 -0.203209206462 0.0634640902281 0.0210796054453 -0.0607536137104 -0.105451621115 0.0389366522431 0.0233829896897 0.0771596804261 0.0626518279314 -0.0525525845587 -0.0162743534893 0.0545775704086 0.0161391943693 -0.0924792811275 -0.244066298008 -0.138521015644 0.0285941641778 -0.0363733023405 0.0840304195881 0.0383738018572 0.178722903132 -0.0287327971309 -0.202768653631 0.0372127220035 0.190464451909 -0.136246547103 -0.235829904675 0.0390941277146 -0.111556187272 0.0871262177825 0.303562998772 -0.179811418056 -0.0894131213427 -0.245629414916 -0.101395435631 -0.123053707182 -0.19832341373 0.0349863469601 -0.0488972254097 -0.146727308631 -0.207888051867 0.167663887143 -0.0966918468475 0.0445227511227 0.158837094903 -0.222271993756 0.0502655729651 0.0241484716535 0.0700635612011 -0.317144066095 0.00652107037604 0.0739290416241 -0.0768272578716 0.200221076608
1 0.11222820729 -0.359849542379 0.0436540059745 -0.0228423979133 -0.188335180283 0.176038607955 -0.138475105166 -0.178274020553 -0.275229126215 0.223199933767 -0.151399731636 -0.110163465142 0.00498053664342 0.140052586794 -0.310112565756 -0.13889721036 0.124794825912 0.154112696648 -0.104956664145 -0.29667943716 0.102411054075 -0.00204021413811 -0.019835870713 -0.0311583597213 0.115352258086 -0.0216797646135 -0.186476990581 0.164026781917 0.275592923164 0.157280176878 0.252609699965 0.131267994642 -0.173183903098 -0.257891625166 -0.161023110151 0.179431527853 -0.212241247296 0.145986169577 -0.0352139919996 0.151379719377 -0.0306013971567 0.180053517222 0.16148583591 -0.0207880418748 -0.0241168458015 -0.173719272017 -0.0121421171352 0.231450051069 -0.214447319508 0.0768369212747 0.0628737062216 -0.201262310147 -0.194748938084 0.140451222658 0.00595077499747 0.231394663453 0.311496764421 0.327449053526 -0.141435757279 0.10887940228 -0.19663785398 0.00904215779155 -0.0495718792081 0.0137146823108 0.103381723166 -0.299997478724 0.010779440403 -0.0238933600485 0.10584422946 0.239382490516 -0.211948290467 0.226987734437 0.0403227694333 -0.192453190684 -0.229378059506 0.073560655117 0.021445620805 -0.0661624073982 -0.116533532739 0.0395349562168 0.0337635837495 0.085300527513 0.0678323209286 -0.0546784363687 -0.0224514268339 0.066096611321 0.024546328932 -0.102752707899 -0.263095676899 -0.141817569733 0.0225314386189 -0.0340837426484 0.10126658529 0.0441961027682 0.195560142398 -0.0262655038387 -0.223132193089 0.0405578874052 0.218318969011 -0.159102931619 -0.266641795635 0.0454298257828 -0.121257796884 0.0915714204311 0.329454690218 -0.203361034393 -0.0978897660971 -0.275309681892 -0.115079760551 -0.138058960438 -0.223468899727 0.0410544387996 -0.0544036999345 -0.173076912761 -0.22949257493 0.177047044039 -0.106532260776 0.0510926656425 0.180711060762 -0.254131406546 0.0590087659657 0.0313294120133 0.0763354599476 -0.350239038467 0.0113596757874 0.0782532244921 -0.0825105831027 0.225473850965
2 0.122077897191 -0.412876486778 0.047965656966 -0.023296656087 -0.220781981945 0.202689021826 -0.164804875851 -0.201885938644 -0.319300353527 0.258572787046 -0.176532909274 -0.119822315872 0.00580385467038 0.153559476137 -0.362575381994 -0.157404243946 0.146343916655 0.182689502835 -0.124769210815 -0.347078323364 0.1230013147 0.00388382910751 -0.0257970746607 -0.031863655895 0.131058126688 -0.0246790293604 -0.217873319983 0.195503756404 0.317071437836 0.17588250339 0.298257619143 0.153316438198 -0.204214528203 -0.301750898361 -0.180142313242 0.21637801826 -0.245188564062 0.172545060515 -0.0440743751824 0.173160642385 -0.041113473475 0.208009406924 0.18192204833 -0.0232202913612 -0.0262015387416 -0.191075369716 -0.0152682987973 0.268746554852 -0.249238684773 0.0847176238894 0.0718875750899 -0.234247684479 -0.21875846386 0.155825644732 -0.000876179605257 0.275676071644 0.363333463669 0.380218863487 -0.168590396643 0.128935530782 -0.2283629179 0.0122168334201 -0.0526525042951 0.0191230829805 0.117699787021 -0.352960020304 0.0112438462675 -0.0260768942535 0.123450420797 0.279874920845 -0.239395081997 0.273703575134 0.0421058423817 -0.233346626163 -0.262200027704 0.0834691375494 0.0276143699884 -0.0810992568731 -0.134310111403 0.0516736879945 0.0286036822945 0.0994950309396 0.0794971808791 -0.069123595953 -0.0270734541118 0.0729570686817 0.0237011574209 -0.118988454342 -0.305780738592 -0.173105254769 0.0289403237402 -0.0387307368219 0.114739187062 0.0520455501974 0.223727703094 -0.0386586077511 -0.253661394119 0.0432060658932 0.248710751534 -0.174654364586 -0.307094663382 0.0506009310484 -0.141287714243 0.1085517928 0.384720623493 -0.234792709351 -0.119434550405 -0.315052747726 -0.131987243891 -0.157702684402 -0.252127587795 0.0426527522504 -0.0599512048066 -0.189727544785 -0.267335981131 0.2087379843 -0.123518452048 0.0580528154969 0.211168602109 -0.289371401072 0.0690581724048 0.0291114859283 0.0870132446289 -0.407489836216 0.00830757711083 0.09259095788 -0.0997518077493 0.256151735783
3 0.137520611286 -0.475479781628 0.0623672865331 -0.0205666199327 -0.247777804732 0.243755891919 -0.197818189859 -0.2315454036 -0.361314445734 0.297133207321 -0.217493370175 -0.135251358151 0.0069237886928 0.167966470122 -0.420799463987 -0.17988038063 0.166767627001 0.208980068564 -0.148177117109 -0.397978782654 0.14672395587 -0.00761386519298 -0.0150469345972 -0.0416490808129 0.150518938899 -0.0266516264528 -0.256879627705 0.221843749285 0.361412167549 0.200362563133 0.341796129942 0.177195340395 -0.236366823316 -0.346966713667 -0.210015058517 0.254022866488 -0.282939493656 0.19478148222 -0.049709122628 0.199183046818 -0.0468770898879 0.241399750113 0.205390408635 -0.022362023592 -0.0288978647441 -0.219003394246 -0.0155814522877 0.307785302401 -0.299231052399 0.102016404271 0.0803424417973 -0.276331394911 -0.251064449549 0.182452663779 0.00420047482476 0.314607143402 0.417848229408 0.44662502408 -0.191585972905 0.141443371773 -0.25665590167 0.0223176404834 -0.0621325820684 0.0165830198675 0.125757917762 -0.406266450882 0.0120432758704 -0.0163926649839 0.14401692152 0.322917819023 -0.280569970608 0.307465672493 0.0448434241116 -0.269270002842 -0.303435325623 0.109689280391 0.038693420589 -0.0978728756309 -0.16018474102 0.0645168051124 0.0335941277444 0.101833991706 0.0796944648027 -0.0732637122273 -0.0209740009159 0.0876363739371 0.0318434983492 -0.133634209633 -0.347139120102 -0.197080478072 0.0261801183224 -0.0383616983891 0.124105125666 0.0671491622925 0.26632463932 -0.0508631169796 -0.293213129044 0.0482023172081 0.281755298376 -0.201050192118 -0.353736013174 0.0568376518786 -0.160253077745 0.124186769128 0.44026607275 -0.273895353079 -0.135222703218 -0.370013684034 -0.153453558683 -0.178857803345 -0.295879811049 0.0531952269375 -0.0658447220922 -0.219064921141 -0.322614401579 0.248631343246 -0.149283275008 0.0517853759229 0.250471383333 -0.33397012949 0.0859928429127 0.0365756042302 0.0975540652871 -0.46595993638 0.00332021247596 0.102685905993 -0.121809177101 0.295473635197
4 0.094548933208 -0.350549966097 0.0502866469324 -0.025155544281 -0.182843357325 0.169051662087 -0.137420088053 -0.171943739057 -0.271890044212 0.213561058044 -0.145747929811 -0.0967574417591 -0.00149102008436 0.121435903013 -0.303651630878 -0.132816195488 0.131314054132 0.157505050302 -0.108210437 -0.302984893322 0.112316928804 -0.00336388219148 -0.0152724217623 -0.0279674008489 0.110642276704 -0.0166059434414 -0.177717790008 0.167456865311 0.265449464321 0.147782966495 0.25334995985 0.130569145083 -0.17783048749 -0.257852852345 -0.15054897964 0.184086814523 -0.217606544495 0.156976357102 -0.0367547087371 0.14618241787 -0.0400411300361 0.187792345881 0.161405533552 -0.025732094422 -0.0171144381166 -0.169747620821 -0.0169706251472 0.232655122876 -0.215409949422 0.0778933316469 0.0494061596692 -0.202710539103 -0.186093837023 0.137057691813 -0.00108759244904 0.234938114882 0.31288293004 0.325790017843 -0.153686538339 0.111966252327 -0.178390443325 0.0131822563708 -0.0325019843876 0.0128831984475 0.0882442221045 -0.300093859434 0.0118161113933 -0.0177830904722 0.0998106896877 0.229483306408 -0.204753145576 0.238454684615 0.0347240269184 -0.202286347747 -0.226609766483 0.0736097991467 0.0312283337116 -0.0672201663256 -0.117049321532 0.0415344461799 0.0201939400285 0.0832877159119 0.0687145143747 -0.0535048805177 -0.0240209549665 0.0562559626997 0.0138156469911 -0.102631650865 -0.265282422304 -0.150108620524 0.0431868471205 -0.0410646237433 0.093341037631 0.0428597591817 0.19453369081 -0.0371280275285 -0.216820523143 0.0385867580771 0.212590679526 -0.147998377681 -0.258448302746 0.0435936078429 -0.112793199718 0.0959783121943 0.325273692608 -0.200020968914 -0.0951143577695 -0.273178875446 -0.11070228368 -0.13379445672 -0.215008869767 0.0311840716749 -0.0465768314898 -0.153864324093 -0.224104180932 0.183647170663 -0.107005514205 0.0464930385351 0.172596380115 -0.241684228182 0.0607690922916 0.0281008463353 0.0694877505302 -0.337047666311 0.00433629890904 0.0846013873816 -0.0891842097044 0.217953085899
5 0.115031242371 -0.434687703848 0.0655750930309 -0.0114498399198 -0.220637336373 0.219066858292 -0.181445345283 -0.203537762165 -0.316788673401 0.274471580982 -0.19881555438 -0.118643157184 -0.01073496975 0.143005684018 -0.382050901651 -0.156246647239 0.152107864618 0.191961824894 -0.128723800182 -0.367789655924 0.143240615726 0.00550280883908 -0.0104585029185 -0.0334660001099 0.12570618093 -0.0185039229691 -0.232998475432 0.197058737278 0.33492910862 0.181777015328 0.306048065424 0.169707760215 -0.215621590614 -0.322140097618 -0.17041669786 0.227275341749 -0.267949044704 0.181437671185 -0.0487190186977 0.18091148138 -0.0565925501287 0.214894190431 0.183452218771 -0.0383861362934 -0.0262136068195 -0.185791477561 -0.0041778832674 0.273994505405 -0.268631845713 0.0829134359956 0.074710868299 -0.255219727755 -0.224910795689 0.156723290682 -0.00344526395202 0.273016005754 0.385001122952 0.402641862631 -0.176055297256 0.133852943778 -0.223701611161 0.0319172851741 -0.0496397167444 0.0279440451413 0.114521928132 -0.376474648714 0.0154205104336 -0.0233230516315 0.124736011028 0.288554608822 -0.244943708181 0.288570314646 0.0373174361885 -0.253824084997 -0.28205499053 0.0817629173398 0.0368831008673 -0.102231636643 -0.143517240882 0.051871124655 0.0159165970981 0.102015160024 0.0662953704596 -0.0762140825391 -0.0249306149781 0.0596492961049 0.0384814068675 -0.110237181187 -0.327654540539 -0.182180836797 0.0454717762768 -0.0327778495848 0.101123012602 0.0584439635277 0.221581563354 -0.0345943942666 -0.248442262411 0.026337672025 0.246090874076 -0.173291265965 -0.320502609015 0.0454477183521 -0.153858706355 0.112687289715 0.418969959021 -0.258384555578 -0.123910903931 -0.318323999643 -0.144769027829 -0.152998954058 -0.248818099499 0.0412901751697 -0.0579668059945 -0.186017215252 -0.277377545834 0.215652287006 -0.140340834856 0.0466351732612 0.216794192791 -0.286377727985 0.0691945105791 0.0394903123379 0.0856990814209 -0.430646061897 0.00625434704125 0.0994066074491 -0.117437466979 0.253866761923
6 0.107964195311 -0.392282247543 0.0462112277746 -0.0157550554723 -0.207257777452 0.199566796422 -0.156779527664 -0.19154265523 -0.297474771738 0.249866291881 -0.178952589631 -0.108895935118 -0.00113377452362 0.133785828948 -0.342872440815 -0.145945414901 0.148246750236 0.170603200793 -0.121905237436 -0.324039101601 0.122236095369 0.0056663993746 -0.00874016620219 -0.0362982004881 0.121966056526 -0.0219875685871 -0.209941193461 0.19135157764 0.298561632633 0.163442701101 0.281215488911 0.150350943208 -0.196743130684 -0.290423691273 -0.162263676524 0.209778159857 -0.236147373915 0.160782754421 -0.0459169149399 0.164754927158 -0.0476249195635 0.199931100011 0.177338391542 -0.0260697323829 -0.0245840270072 -0.174194052815 -0.00728006800637 0.256800353527 -0.243540748954 0.0798911526799 0.0680144354701 -0.223700746894 -0.205249130726 0.151227429509 0.00615775305778 0.259991765022 0.347776442766 0.365589469671 -0.158664554358 0.119603447616 -0.205407604575 0.0162296518683 -0.0475168675184 0.0161900725216 0.0982830375433 -0.335694462061 0.0161815341562 -0.0185662154108 0.115883402526 0.263243228197 -0.227472901344 0.259060740471 0.0340676829219 -0.227179720998 -0.253523886204 0.0838861316442 0.0303254555911 -0.0839836746454 -0.128308296204 0.0513304211199 0.0247065871954 0.08929977566 0.0747951865196 -0.0666066408157 -0.0181076843292 0.0645265206695 0.0245852433145 -0.110961407423 -0.286559969187 -0.176680505276 0.0346381776035 -0.0318007953465 0.103704228997 0.0520065613091 0.214779853821 -0.0383323915303 -0.235937669873 0.0345072634518 0.232460126281 -0.163203179836 -0.291367202997 0.04821190238 -0.143416285515 0.100333124399 0.370697230101 -0.222892269492 -0.106445014477 -0.299223989248 -0.119577661157 -0.150562986732 -0.243133202195 0.044553026557 -0.0600251890719 -0.174486890435 -0.252710402012 0.207141309977 -0.124010339379 0.0490373894572 0.196096718311 -0.271056234837 0.0652783438563 0.0304177068174 0.081934928894 -0.388224363327 -0.00366126000881 0.0897405818105 -0.102185636759 0.24542376399
7 0.119226358831 -0.425976961851 0.0456847511232 -0.0284906085581 -0.229189366102 0.217277556658 -0.165683954954 -0.209319934249 -0.329968988895 0.266649514437 -0.188729181886 -0.124126538634 0.00365128507838 0.152300640941 -0.368972480297 -0.159080550075 0.150559514761 0.182124361396 -0.125789240003 -0.351922571659 0.122937083244 0.007292334456 -0.0234589166939 -0.0401846244931 0.136082321405 -0.0280829928815 -0.216300174594 0.199359372258 0.33016628027 0.184355080128 0.30478027463 0.162956848741 -0.210341855884 -0.308589845896 -0.186469107866 0.223318979144 -0.253133028746 0.168604642153 -0.0555815882981 0.180742666125 -0.040385324508 0.211566641927 0.195067241788 -0.0246561039239 -0.0245071724057 -0.196060702205 -0.0111802443862 0.27526807785 -0.259115606546 0.0917498990893 0.0726864412427 -0.23755055666 -0.227652072906 0.160641655326 0.000345406471752 0.273492217064 0.377270013094 0.391204863787 -0.169357836246 0.128989040852 -0.232460215688 0.0109492819756 -0.057530336082 0.0185831189156 0.113368950784 -0.36023709178 0.00923103932291 -0.0212477147579 0.125133812428 0.292519837618 -0.248434275389 0.278468102217 0.0428136698902 -0.241311594844 -0.278359264135 0.0854723528028 0.0270714703947 -0.0873634815216 -0.137882828712 0.0578935109079 0.0376259833574 0.101739324629 0.0809291526675 -0.0691972225904 -0.0293017737567 0.0762756988406 0.0352489091456 -0.119652077556 -0.311924815178 -0.178100168705 0.034354377538 -0.045638717711 0.118272714317 0.0564526990056 0.230539679527 -0.0304533801973 -0.2595744133 0.0396937206388 0.261558741331 -0.173421025276 -0.315631896257 0.0473490916193 -0.148645341396 0.110330291092 0.395117342472 -0.240744426847 -0.113752789795 -0.325784385204 -0.136782497168 -0.165097102523 -0.269452512264 0.046475507319 -0.0670721828938 -0.197244793177 -0.273894459009 0.212504193187 -0.125683143735 0.0622736141086 0.214915558696 -0.297386556864 0.0744884684682 0.0266960877925 0.0828011706471 -0.412002950907 -0.00295694172382 0.0966231152415 -0.0998322814703 0.261646986008
8 0.0558868274093 -0.196919709444 0.0248968508095 -0.0103925634176 -0.10371503979 0.0913164317608 -0.0727057307959 -0.0961341932416 -0.144515216351 0.119424715638 -0.077616982162 -0.0609703138471 0.00166823004838 0.0751439407468 -0.169714137912 -0.082167878747 0.0745423659682 0.0875410065055 -0.0556990467012 -0.167583525181 0.0583485402167 0.00525671150535 -0.0118608102202 -0.0174008924514 0.0646605789661 -0.00891258846968 -0.0977434962988 0.0955155342817 0.144560799003 0.0878433734179 0.140300065279 0.0785501226783 -0.098622456193 -0.146334245801 -0.0820812806487 0.0978942960501 -0.123369187117 0.0877339169383 -0.0174675434828 0.0842654556036 -0.0249942615628 0.10661778599 0.090565122664 -0.0144054926932 -0.0115859434009 -0.0929224565625 -0.00831887405366 0.124332875013 -0.119270406663 0.0398702546954 0.0325360447168 -0.114493437111 -0.104597955942 0.0780437886715 0.00338311353698 0.129436701536 0.173788607121 0.17948821187 -0.0818598791957 0.0646918192506 -0.102335818112 0.00588398938999 -0.017084652558 0.00863325595856 0.0546446293592 -0.16520152986 0.00876833777875 -0.0184722524136 0.0550472959876 0.13096010685 -0.109134539962 0.130543664098 0.0199820548296 -0.113696016371 -0.12307754159 0.0385504774749 0.0117284730077 -0.036690633744 -0.0564528666437 0.0228611771017 0.0108473589644 0.0457547605038 0.0415479131043 -0.0368837341666 -0.0111849568784 0.027068676427 0.0109028872102 -0.0522571243346 -0.152484714985 -0.0872796550393 0.0245412029326 -0.0192953813821 0.0510503575206 0.0213764477521 0.100574992597 -0.0186261497438 -0.118452727795 0.023555431515 0.11892298609 -0.0876272916794 -0.1477394104 0.0240442734212 -0.062104396522 0.0547352619469 0.184744641185 -0.109572373331 -0.0536503195763 -0.149173349142 -0.0564560219646 -0.0759496837854 -0.114442914724 0.0222772285342 -0.0281637255102 -0.0879449248314 -0.119570314884 0.102004446089 -0.0578475408256 0.0304253213108 0.0959582775831 -0.134018808603 0.0215423610061 0.015941683203 0.0445964932442 -0.192791730165 0.0048054154031 0.0454875826836 -0.0523392148316 0.123673096299
9 0.114339627326 -0.391446679831 0.0635498985648 -0.00245983013883 -0.167063772678 0.18663610518 -0.142646312714 -0.187908932567 -0.258145391941 0.193854033947 -0.104310855269 -0.142082080245 0.0175692215562 0.17285309732 -0.330922216177 -0.16109585762 0.15365691483 0.169147059321 -0.0669792145491 -0.30960765481 0.0922672227025 -0.00106056709774 -0.0270235408098 -0.0125573799014 0.104080341756 0.00865393411368 -0.202425643802 0.142157077789 0.26409894228 0.157514482737 0.255834162235 0.17662602663 -0.16013596952 -0.311317741871 -0.178675800562 0.210247650743 -0.232888609171 0.190562173724 0.0210204683244 0.175359770656 -0.0423191860318 0.218395888805 0.188756853342 -0.0542316064239 -0.0257755853236 -0.178759098053 -0.027634235099 0.223882585764 -0.239642173052 0.0601465925574 0.0853159427643 -0.214482620358 -0.199610084295 0.16438177228 0.0473787933588 0.216104015708 0.30286860466 0.332668483257 -0.182466849685 0.127545371652 -0.174310803413 0.0290309712291 -0.0439871177077 0.00521106645465 0.108761094511 -0.320706248283 0.0114632984623 -0.0641170218587 0.120400838554 0.232994452119 -0.168742477894 0.23800124228 0.0620915219188 -0.196502238512 -0.193759098649 0.0460709370673 0.0302357599139 -0.0643677562475 -0.106785014272 0.0346023216844 0.0188133753836 0.057887122035 0.0845230668783 -0.0348462536931 -0.00415337085724 0.0547258555889 0.0106217851862 -0.0897128134966 -0.311940431595 -0.15679782629 0.0422288253903 -0.0302940700203 0.111000262201 0.0424192585051 0.196583330631 -0.0489321537316 -0.231308296323 0.0708330646157 0.237273409963 -0.192019641399 -0.295051008463 0.0217055492103 -0.0983910560608 0.109559088945 0.34860175848 -0.189069107175 -0.0967748165131 -0.296856880188 -0.105489738286 -0.12020855397 -0.201141834259 0.0529855005443 -0.0365535840392 -0.170197665691 -0.255157530308 0.162032589316 -0.0998050570488 0.0595435090363 0.161793783307 -0.251936942339 0.0224946234375 0.0562893822789 0.0943874046206 -0.374088793993 0.0449613109231 0.0726385638118 -0.108982093632 0.246887892485
10 0.0874486938119 -0.319195955992 0.0443129204214 -0.0197622217238 -0.165131539106 0.151347443461 -0.126145035028 -0.152885600924 -0.247193291783 0.193863749504 -0.132076114416 -0.0893207192421 -0.00310871424153 0.110739573836 -0.273281216621 -0.119600392878 0.123004823923 0.141391307116 -0.101825810969 -0.272058039904 0.103977233171 -0.0047380393371 -0.00799334887415 -0.0273656472564 0.0968117043376 -0.0161338895559 -0.164976984262 0.15416829288 0.23878993094 0.134146362543 0.229377433658 0.117026664317 -0.163099780679 -0.234890326858 -0.131565451622 0.168330520391 -0.198948279023 0.142816573381 -0.030676882714 0.129593789577 -0.0387693606317 0.169077292085 0.145545661449 -0.0252406932414 -0.0194808766246 -0.154039219022 -0.0133064286783 0.205517545342 -0.19824410975 0.0690463706851 0.0451020635664 -0.180734142661 -0.166676446795 0.126343220472 0.00280178524554 0.217782914639 0.281018584967 0.294240266085 -0.136623352766 0.100690543652 -0.159089043736 0.0151906535029 -0.0261607207358 0.0142186610028 0.0798192769289 -0.268850296736 0.0146279465407 -0.0203744675964 0.0884601846337 0.208918496966 -0.187263578176 0.216034427285 0.0339183658361 -0.181139841676 -0.201042443514 0.0660164952278 0.0289580635726 -0.0572581738234 -0.102931477129 0.0352033488452 0.0165456607938 0.0770518928766 0.0619511716068 -0.0465313158929 -0.0149311348796 0.0498827807605 0.00852770265192 -0.0933090522885 -0.23802010715 -0.137265622616 0.0361887253821 -0.0318159461021 0.0837996006012 0.0370951779187 0.17883361876 -0.0358837582171 -0.195877939463 0.0327721573412 0.189438253641 -0.134700208902 -0.235047504306 0.0430202037096 -0.102270744741 0.0846893116832 0.292028963566 -0.178648203611 -0.0868959501386 -0.246507316828 -0.0960254222155 -0.119059585035 -0.189261168242 0.0341505855322 -0.0411340035498 -0.136791676283 -0.206051722169 0.171793863177 -0.099355019629 0.0390435159206 0.157605990767 -0.217939779162 0.0537146702409 0.0257011000067 0.065617904067 -0.309974431992 0.00953269284219 0.0767198726535 -0.0844560936093 0.202629029751
11 -0.00673361122608 -0.208497285843 0.0246199071407 0.0951350703835 -0.160986661911 0.12945151329 -0.057298284024 -0.105917103589 -0.118239879608 0.146705299616 0.0523562096059 -0.0809605270624 -0.0251009035856 0.00776350218803 -0.163857579231 -0.0932424142957 0.138562262058 0.0257950592786 0.0418391190469 -0.180157586932 0.00543878367171 0.0252450406551 -0.00922228768468 -0.0181647185236 0.0439195781946 0.0102758435532 -0.0969967395067 0.0891734585166 0.221382722259 0.0449920520186 0.0779922679067 0.0954090878367 -0.0413449220359 -0.208447277546 -0.062876008451 0.16079993546 -0.0786629915237 0.0739581659436 -0.0026246807538 0.0936536490917 0.035510070622 0.10019262135 0.169597372413 -0.165548563004 0.0601778700948 -0.0661790817976 0.079489402473 0.0934654921293 -0.153185039759 0.041631475091 0.0532868281007 -0.0442460477352 -0.12081503123 0.120124019682 0.0217817034572 0.0642897486687 0.17175899446 0.252614706755 -0.199714943767 0.178312182426 -0.0597102418542 0.100067660213 -0.0529959723353 0.0363360606134 0.119688771665 -0.154509663582 -0.0188856627792 -0.110749743879 0.0790496096015 0.113258071244 -0.142794325948 0.137573823333 -0.000291379721602 -0.12531350553 -0.078787446022 -0.093952216208 0.0315773114562 0.0411051884294 -0.00964909791946 0.0291867423803 -0.0320018194616 0.0999244898558 0.0837983638048 0.0246289782226 0.0406903959811 -0.0409454517066 0.00426086829975 -0.0638336911798 -0.238944619894 -0.116994649172 0.077765442431 0.03195861727 0.0812927260995 0.00529298558831 0.128547981381 0.0390628501773 -0.151032090187 0.0245279874653 0.136292591691 -0.0984286144376 -0.233953669667 0.0268688555807 -0.0883848667145 0.0172610338777 0.14657124877 -0.116850323975 0.01676857844 -0.131680801511 -0.0164886899292 -0.0574313737452 -0.109617598355 0.0289096049964 -0.0224192552269 -0.034399330616 -0.165047004819 0.115097500384 -0.0650007799268 0.0539207085967 0.0856198593974 -0.131546795368 0.0241563823074 -0.0353723950684 0.0851960033178 -0.196422830224 0.00857922248542 -0.0032628015615 -0.0253558177501 0.156518682837
12 0.0197088737041 -0.125631839037 0.0340507477522 -0.00183669908438 -0.0638758838177 0.0416614562273 -0.0445395708084 -0.0568748749793 -0.0709616690874 0.0797615498304 -0.0618491582572 -0.0327819734812 -0.0244543682784 0.0409502089024 -0.0949966609478 -0.0327439978719 0.0547772832215 0.0420072115958 -0.0221410356462 -0.0961781591177 0.0640246942639 -0.0145333763212 -0.000808399287052 -0.00191924581304 0.0278397519141 0.00190917728469 -0.0665515884757 0.0240482781082 0.094614803791 0.0588397309184 0.0678177177906 0.03282847628 -0.0514038726687 -0.0875651985407 -0.0382442548871 0.0453071780503 -0.0889683887362 0.0520396418869 -0.000565920490772 0.0789062529802 -0.0133349001408 0.0499150231481 0.0429761447012 -0.0322135165334 -0.0127251492813 -0.0493817441165 0.0155765647069 0.0707611143589 -0.0717111453414 0.0324444547296 0.0241596624255 -0.0740670263767 -0.0630625039339 0.0317515581846 0.00106808624696 0.0554228462279 0.0942309722304 0.109334364533 -0.048091314733 0.0328961983323 -0.0504398047924 0.0223770663142 -0.0143529903144 0.0116747654974 0.0238778870553 -0.0834595412016 0.0103102168068 -0.023823864758 0.0389453880489 0.0620189830661 -0.0460771284997 0.0588067509234 0.0185790341347 -0.0496373027563 -0.0731469988823 0.000409284606576 -0.00434182817116 -0.0233488492668 -0.0543520227075 -0.00103576574475 0.0114587740973 0.0328678712249 0.0148693658412 -0.00044921785593 0.00928189046681 0.00099425483495 0.0176097657531 -0.0281549617648 -0.109184354544 -0.0369553938508 0.018301974982 -0.0146086616442 -0.00593868736178 0.0102639589459 0.0513432025909 0.006230621133 -0.0558939166367 -0.000225677271374 0.0597373507917 -0.0424008853734 -0.0816323831677 0.0128286089748 -0.0355327427387 0.0240181759 0.129287809134 -0.0763101056218 -0.0202819723636 -0.0782831162214 -0.0419981144369 -0.0195898991078 -0.0404972210526 0.00993376597762 -0.00898905284703 -0.0449965894222 -0.0752448067069 0.0632157921791 -0.0501066371799 0.00913490913808 0.0498132929206 -0.0746144801378 0.0085626905784 0.0218935813755 0.0342542827129 -0.10971352458 0.00756562873721 0.0384486541152 -0.0237661972642 0.0666832625866
13 0.0418350659311 -0.126633495092 0.019162228331 0.00191132491454 -0.0730079114437 0.063505217433 -0.0544180423021 -0.0674329549074 -0.0958685278893 0.0893606022 -0.0530530586839 -0.0401436090469 -0.00431184284389 0.0481065586209 -0.106938771904 -0.0549632534385 0.041421815753 0.0464918538928 -0.0439222753048 -0.119651980698 0.0420268252492 -0.00307157076895 0.00207686703652 -0.0106916949153 0.0432614423335 -0.00929200556129 -0.0780621170998 0.0616866275668 0.107632882893 0.0522917322814 0.0876633822918 0.0358886159956 -0.0673385262489 -0.0928345918655 -0.0508375763893 0.0668434649706 -0.0786528512836 0.0513128638268 -0.011739147827 0.0475411191583 -0.0109526636079 0.0523274093866 0.0506207719445 -0.0104810828343 -0.0128715885803 -0.0643618106842 -0.00550326099619 0.0861519351602 -0.0678619369864 0.0351432263851 0.0154158780351 -0.0805941820145 -0.0670595169067 0.0605813190341 0.00380003033206 0.0868717953563 0.117249682546 0.121648222208 -0.05788455531 0.0404644459486 -0.0664965510368 0.00420416658744 -0.0172301568091 0.00916594453156 0.0447655394673 -0.107748396695 0.00566807668656 -0.0096376221627 0.0312890782952 0.0818033516407 -0.0848550200462 0.082446731627 0.00752262491733 -0.069159515202 -0.0820510685444 0.035180836916 0.0137952240184 -0.0216674171388 -0.0337826646864 0.00115172029473 0.000622033141553 0.0387793034315 0.0217178333551 -0.0229121018201 -0.00401823222637 0.0190355647355 0.00532253738493 -0.0476408042014 -0.0945677161217 -0.0396813079715 0.0125636877492 -0.00032036122866 0.0346318520606 0.00870939344168 0.0767015069723 -0.0148366261274 -0.0696312114596 0.00775952916592 0.0825876146555 -0.0622089356184 -0.0875729545951 0.0291488803923 -0.0564070977271 0.0278303083032 0.118775375187 -0.0825596526265 -0.0353130213916 -0.0962506458163 -0.0440643504262 -0.0533484444022 -0.0869491547346 0.00371413072571 -0.0211142860353 -0.0580408498645 -0.0833154022694 0.0640853345394 -0.0391162931919 0.020951455459 0.0616430304945 -0.0953676328063 0.0194821581244 0.0216017682105 0.0265501514077 -0.127661019564 -0.000872330449056 0.0311276763678 -0.0308271776885 0.0855857729912
14 0.0473564043641 -0.141110822558 0.0283445660025 -0.0205252952874 -0.0709266290069 0.0725126415491 -0.0639767497778 -0.0611749254167 -0.0778153389692 0.0926118642092 -0.0832695290446 -0.0466042160988 0.00673100166023 0.0589499361813 -0.128391683102 -0.0432470701635 0.0176372416317 0.050087403506 -0.0462541431189 -0.101983040571 0.0552077144384 -0.00458789616823 -0.00884302612394 -0.00327554182149 0.0248679481447 -0.012527756393 -0.060651101172 0.048278413713 0.109643831849 0.0659054517746 0.0938803553581 0.054242618382 -0.0551467984915 -0.0951060503721 -0.0142153622583 0.0585600063205 -0.0870859846473 0.0354806184769 -0.0304931290448 0.0528344884515 -0.0130725409836 0.0516025647521 0.0681619048119 -0.0210037901998 0.00847424194217 -0.0551400184631 0.0033889033366 0.0733392611146 -0.0864872932434 0.039346780628 0.00939260888845 -0.0672865509987 -0.0746440440416 0.0411817356944 -0.0149496141821 0.0620566308498 0.104488715529 0.0984920114279 -0.0421527959406 0.0166297294199 -0.0877822190523 0.0113595807925 -0.00744221359491 0.00560561800376 0.0470968559384 -0.103551238775 0.00495790364221 -0.010411686264 0.0150953447446 0.0964348167181 -0.0890122056007 0.0822499841452 0.0141164530069 -0.083556599915 -0.100293278694 0.028366714716 0.0184568017721 -0.0135569740087 -0.0264335796237 -0.00123265292495 0.0147629538551 0.0356701165438 0.00668428698555 -0.020838983357 -0.0261072032154 0.0128053743392 0.0288953706622 -0.0347608923912 -0.0920148640871 -0.0323342531919 0.0264493301511 -0.000344540691003 0.0236160829663 0.02352094464 0.0530362911522 -0.0170823000371 -0.0607610866427 -0.00641951849684 0.0546396523714 -0.0575033277273 -0.107019156218 -0.00955816172063 -0.0440829023719 0.0357991494238 0.121163278818 -0.102339819074 -0.0308676175773 -0.0875687301159 -0.0382155328989 -0.0614193305373 -0.0816256999969 0.0267372559756 -0.027099924162 -0.0561573691666 -0.0714789554477 0.0397782735527 -0.0614638067782 0.00468565523624 0.0658727437258 -0.0741483569145 0.00727568008006 0.00036795437336 0.0322861820459 -0.127672404051 0.0104580586776 0.0309570431709 -0.0278332047164 0.0768420547247
15 0.0930652916431 -0.310719460249 0.0374641381204 -0.0180993080139 -0.164209827781 0.150859877467 -0.119557909667 -0.151151657104 -0.241730511189 0.195590928197 -0.139700487256 -0.0865867733955 -0.00189508800395 0.111648343503 -0.268857300282 -0.113370016217 0.112848177552 0.134706124663 -0.0973486602306 -0.25598949194 0.0970573499799 -0.00140213384293 -0.0113808400929 -0.0283798612654 0.0978032499552 -0.0203301869333 -0.16484183073 0.148787468672 0.238944143057 0.132049530745 0.222507312894 0.11068405956 -0.153112471104 -0.22535790503 -0.131876915693 0.158121719956 -0.188352227211 0.127165809274 -0.0364813171327 0.130092337728 -0.0336770713329 0.156185746193 0.137658640742 -0.0199069287628 -0.0211049560457 -0.145525455475 -0.00869910418987 0.205659002066 -0.184884771705 0.0655574277043 0.050461743027 -0.17710237205 -0.164173707366 0.120735935867 0.00192622246686 0.207024395466 0.274632364511 0.287924319506 -0.122197374701 0.0943320170045 -0.165683537722 0.00778139801696 -0.0383507534862 0.0102054448798 0.081007771194 -0.262024730444 0.0160021204501 -0.0149314049631 0.0915140062571 0.206631660461 -0.184927046299 0.202523708344 0.0309441834688 -0.174747169018 -0.201845362782 0.0685989931226 0.023156652227 -0.0602879971266 -0.105169229209 0.0350639149547 0.0227816496044 0.0754190012813 0.0601526275277 -0.0508171841502 -0.0191242806613 0.0537962131202 0.0179460644722 -0.0912788808346 -0.224631816149 -0.132736161351 0.025942152366 -0.0284765437245 0.085055783391 0.0428178422153 0.173177078366 -0.0274638403207 -0.193712368608 0.0286023002118 0.184161111712 -0.132064983249 -0.229383006692 0.0433088727295 -0.109258569777 0.0801724418998 0.289682239294 -0.176064327359 -0.0820437818766 -0.238454669714 -0.0979422032833 -0.120554357767 -0.19201053679 0.032886967063 -0.0494653470814 -0.144354999065 -0.193388283253 0.161343857646 -0.0944538265467 0.0424707047641 0.155940935016 -0.214408740401 0.0542620904744 0.0260943118483 0.0624390728772 -0.305289983749 0.00442702509463 0.0715852454305 -0.0753858909011 0.196199387312
16 0.0450370907784 -0.166003733873 0.0414254441857 -0.019443212077 -0.0764278173447 0.0777371972799 -0.0931390970945 -0.0565432682633 -0.124992340803 0.0993276536465 -0.0759692788124 -0.0339992344379 0.00169175746851 0.0507888607681 -0.129499182105 -0.0409338995814 0.045422937721 0.0777772143483 -0.0697920024395 -0.132132291794 0.0741098374128 0.00558689516038 -0.0033903401345 -0.029759619385 0.0355087481439 -0.0236145295203 -0.090895421803 0.0841353535652 0.104974195361 0.0538036301732 0.105444803834 0.0616784319282 -0.088777884841 -0.119161561131 -0.06686873734 0.105331562459 -0.0745499879122 0.06681188941 -0.00738566042855 0.0323612503707 -0.00878379680216 0.0720713287592 0.0726918131113 -0.000738309230655 -0.00324268592522 -0.0712363421917 -0.000750036793761 0.07654312253 -0.094395108521 0.0190077908337 0.0163017325103 -0.0614149235189 -0.0713472366333 0.0793283060193 -0.00936700589955 0.11225964129 0.14033767581 0.156599506736 -0.0617456100881 0.0308413915336 -0.103470236063 0.024676118046 -0.00753127876669 0.0244521070272 0.0377076566219 -0.120601966977 -0.00712929759175 -0.00247992668301 0.0385947301984 0.126838609576 -0.0853184759617 0.118384294212 0.00879006553441 -0.078915566206 -0.106899499893 0.0306946821511 0.0293589532375 -0.0346124619246 -0.0611402764916 0.00930490158498 0.00802056957036 0.0277762059122 0.0212636217475 -0.0215231329203 0.0107989404351 0.0347043164074 0.0166534967721 -0.0372178740799 -0.10355257988 -0.0420586355031 -0.00693924026564 -0.00730085838586 0.0440352670848 0.0189936682582 0.073753260076 -0.0192411076277 -0.0748603343964 -0.0186618082225 0.0983913838863 -0.0695223286748 -0.0993683487177 0.0167070440948 -0.0488404259086 0.0426852405071 0.140973865986 -0.0936967134476 -0.0560857057571 -0.129187360406 -0.0414997041225 -0.0346181876957 -0.0780363082886 0.0225516539067 0.00153898121789 -0.0402717404068 -0.118736475706 0.0737950503826 -0.0554189011455 -0.00529605243355 0.0947436392307 -0.110973775387 0.0316262766719 0.00339643075131 0.0079145245254 -0.166715085506 0.0100637134165 0.0532239824533 -0.0438731722534 0.102486014366
17 0.0490735396743 -0.13471481204 0.0288444068283 0.0024741650559 -0.0682843327522 0.0835698917508 -0.0541143044829 -0.0529693961143 -0.0883261784911 0.0874264165759 -0.0750217735767 -0.0417993590236 0.002083000727 0.071098357439 -0.124568969011 -0.0463114306331 0.0384319983423 0.05459343642 -0.028569187969 -0.105029970407 0.0640446618199 0.0116222910583 -0.00845255888999 -0.00115454359911 0.0270629171282 -0.0039746449329 -0.0825283378363 0.0521615073085 0.0898648202419 0.0593632310629 0.0965109318495 0.0698331221938 -0.0594894401729 -0.114033490419 -0.04868234694 0.0806684345007 -0.0950605422258 0.0532854236662 -0.00981702655554 0.0682458281517 -0.0225021820515 0.0749505013227 0.064547367394 -0.0139688877389 -0.00945831928402 -0.0488908700645 0.00402498058975 0.0777259618044 -0.0867021903396 0.00670757051557 0.0457373782992 -0.0915427654982 -0.0660596862435 0.0404213406146 0.0036589493975 0.0709881335497 0.12277572602 0.123348429799 -0.0488510020077 0.0337753146887 -0.0846076458693 0.0206066444516 -0.0144210923463 0.00965882278979 0.0311050601304 -0.120018102229 0.000603396678343 -0.0195720475167 0.039331626147 0.100434988737 -0.0409957394004 0.103243544698 0.0185230597854 -0.0919434800744 -0.0825490355492 0.0122283976525 0.00914285611361 -0.0428068190813 -0.0461786836386 0.00880317855626 0.0114067848772 0.0344766899943 0.0308439116925 -0.0250578019768 -0.00858020875603 0.0161915551871 0.0186238251626 -0.00939710438251 -0.102303437889 -0.0540592931211 0.00458795391023 -0.00778303993866 0.0276601072401 0.0338934250176 0.0479380637407 -0.0149217704311 -0.0787530094385 -0.00383192207664 0.0685237571597 -0.0509973391891 -0.1112235412 -0.00576846022159 -0.0562261715531 0.0389444157481 0.152811303735 -0.0779421776533 -0.0480543076992 -0.114539511502 -0.0461282990873 -0.0392714738846 -0.0750877931714 0.0224623642862 0.000444680888904 -0.0506841056049 -0.0857145041227 0.0428393483162 -0.0551308318973 0.0254687238485 0.0502940639853 -0.0952587723732 0.000649416702799 0.00944643840194 0.0442669615149 -0.158618718386 -0.00362857826985 0.0464989505708 -0.0231385026127 0.0773954242468
18 0.0660891085863 -0.19866015017 0.028970900923 -0.00757144391537 -0.106476560235 0.102755062282 -0.0746480152011 -0.0898603945971 -0.147962555289 0.124562181532 -0.0972604975104 -0.0580425448716 -7.35007924959e-05 0.0863945186138 -0.175189197063 -0.0704283118248 0.0697075948119 0.0838366821408 -0.0552360862494 -0.160782366991 0.0764963701367 0.00794297736138 -0.0111115537584 -0.0117073161528 0.0557102560997 -0.0105445720255 -0.11127012223 0.0911566466093 0.145534515381 0.0878046602011 0.144829839468 0.083810210228 -0.0948688983917 -0.1539824754 -0.079349771142 0.10941901803 -0.132084190845 0.0852487534285 -0.021726725623 0.0898472890258 -0.0291447266936 0.106449708343 0.0911463350058 -0.0153591614217 -0.0122269112617 -0.0883134305477 -0.0038889136631 0.125788599253 -0.123063899577 0.0296112466604 0.0456604547799 -0.121891893446 -0.101120650768 0.0685625597835 0.0017616051482 0.123899944127 0.179183125496 0.183387160301 -0.076016575098 0.0581257306039 -0.111360393465 0.0143844000995 -0.0213089585304 0.010749604553 0.0475845970213 -0.174744531512 0.0094654019922 -0.0188385155052 0.0564596876502 0.13539917767 -0.0950005352497 0.141782641411 0.0217464137822 -0.124748811126 -0.129884123802 0.0325012281537 0.0125006614253 -0.0480190739036 -0.0687624365091 0.0192623045295 0.0177337564528 0.0512844324112 0.0411810986698 -0.0333902090788 -0.0124688260257 0.0277121290565 0.0172501392663 -0.0416554436088 -0.148296147585 -0.0847493931651 0.0170691758394 -0.0189021918923 0.0490629598498 0.033456467092 0.0952655300498 -0.0177582595497 -0.125190377235 0.0105193275958 0.111675925553 -0.078227236867 -0.152351588011 0.0133923199028 -0.076256275177 0.0561837144196 0.202276259661 -0.111210644245 -0.0614739395678 -0.157907262444 -0.0645085945725 -0.0697864443064 -0.12122502923 0.0261397100985 -0.0221120286733 -0.0882905200124 -0.12580114603 0.0888597741723 -0.0682832673192 0.0320053622127 0.0876028388739 -0.138402581215 0.0217182449996 0.0139872767031 0.050431933254 -0.210641667247 -0.000869960756972 0.0559013225138 -0.0402278006077 0.121670261025
19 0.0522804968059 -0.200018301606 0.0225776229054 -0.0119903525338 -0.110969975591 0.0951286777854 -0.0796574354172 -0.100816562772 -0.162906691432 0.123931534588 -0.0852458551526 -0.0481434948742 -0.00583097245544 0.0687225461006 -0.16935095191 -0.0762511864305 0.0790228396654 0.0861848816276 -0.06926651299 -0.173924654722 0.0637486502528 0.00646902667359 -0.00580154173076 -0.0161197260022 0.059486720711 -0.0119533268735 -0.101733371615 0.103775925934 0.158301621675 0.0849730744958 0.147734507918 0.0724712833762 -0.106961347163 -0.142196893692 -0.0732270628214 0.109346650541 -0.124991312623 0.0940332114697 -0.0266890861094 0.076762765646 -0.0282221194357 0.099679723382 0.0970038995147 -0.0224991943687 -0.00944412313402 -0.0890272036195 -0.00938091147691 0.132452338934 -0.124889947474 0.0455192364752 0.0276782549918 -0.110179014504 -0.102623485029 0.070503897965 -0.00551064917818 0.135770633817 0.182677969337 0.17805981636 -0.087890535593 0.0661704018712 -0.0963959544897 0.0132749415934 -0.0184328276664 0.00989058893174 0.0501989796758 -0.176906615496 0.011805578135 -0.0182414297014 0.0491507165134 0.127651140094 -0.117860376835 0.13953872025 0.0234522297978 -0.123427830637 -0.13126398623 0.0334844700992 0.0162760373205 -0.0368261598051 -0.0620580203831 0.022590238601 0.0107262097299 0.0570221915841 0.0360687226057 -0.0270122364163 -0.0167776215822 0.0281707700342 0.00689279800281 -0.0645555481315 -0.155515298247 -0.0884482190013 0.0328936837614 -0.0269446149468 0.0493240021169 0.0186308305711 0.108436271548 -0.0194612964988 -0.122519083321 0.0194695089012 0.116300188005 -0.0782003551722 -0.140696778893 0.0242917053401 -0.0741878822446 0.0523849762976 0.185610219836 -0.116370514035 -0.0564739480615 -0.148960441351 -0.0642984956503 -0.0744500681758 -0.123514436185 0.0207551307976 -0.0295890308917 -0.0807927697897 -0.130496799946 0.107398994267 -0.0640046671033 0.023753637448 0.0938460826874 -0.135320842266 0.0349511504173 0.012776857242 0.0382313616574 -0.190227910876 0.00391736626625 0.0512808859348 -0.0494429580867 0.116406418383
20 0.0485227070749 -0.165881067514 0.0304783806205 -0.00610403669998 -0.0755247399211 0.0492086522281 -0.050862647593 -0.0754780992866 -0.0963087752461 0.081763766706 -0.0514725111425 -0.062108039856 9.34679992497e-05 0.0461947396398 -0.12980209291 -0.0673129633069 0.0583794601262 0.0752556473017 -0.0201948843896 -0.127358615398 0.0507350750268 0.0106553761289 -0.0112459314987 -0.0330342613161 0.0531361214817 -0.00666816346347 -0.081771299243 0.0646217688918 0.101826742291 0.0933432281017 0.101933792233 0.0891133323312 -0.0582237541676 -0.1213388592 -0.0668844953179 0.0388435013592 -0.106402821839 0.0758917629719 -0.0103827062994 0.0869831889868 -0.0140526685864 0.0974812805653 0.0492791421711 -0.020777605474 -0.015144655481 -0.0877716615796 0.0128521434963 0.0841168388724 -0.0826903581619 0.0243592262268 0.0310873501003 -0.0887706428766 -0.0948486179113 0.0577281117439 0.00717069022357 0.0814066678286 0.138586103916 0.156110495329 -0.044986769557 0.0435501411557 -0.0797226577997 0.00018950458616 -0.01829447411 0.0323045626283 0.0518021211028 -0.112983509898 0.0177935250103 -0.0264549106359 0.057138863951 0.0942099243402 -0.0761527195573 0.0892462357879 0.00369605678134 -0.0625325366855 -0.101943768561 0.0271164551377 -0.00394221534953 -0.039626814425 -0.0687161162496 0.0212491042912 0.00738170742989 0.0410390645266 0.0342030934989 -0.0404044613242 -0.00745732337236 0.0133289135993 0.0350408554077 -0.0139081291854 -0.13122138381 -0.0789605751634 0.0185990836471 -0.0208477079868 0.0340877100825 0.0105014517903 0.0561235547066 0.0218461602926 -0.0920317098498 0.0104918098077 0.0832166671753 -0.064319640398 -0.123433858156 0.017845928669 -0.0289703216404 0.063649430871 0.162777453661 -0.0882198289037 -0.0378899015486 -0.0842781290412 -0.0552323795855 -0.0573785118759 -0.0765229612589 0.0166751816869 -0.033257111907 -0.100010849535 -0.0766483917832 0.0804864317179 -0.0459727495909 0.0131142428145 0.0824481248856 -0.0819915160537 0.0110090170056 0.0171427894384 0.0355885922909 -0.170450747013 0.0204725526273 0.0455911755562 -0.0332262441516 0.102483138442
21 0.0985805690289 -0.304166853428 0.0302130263299 -0.026889083907 -0.162377372384 0.148123785853 -0.11325404048 -0.147092923522 -0.235960125923 0.193985164165 -0.136263072491 -0.0901293307543 0.000795526662841 0.112427785993 -0.268946498632 -0.103996470571 0.097689434886 0.132111117244 -0.0769289061427 -0.232991680503 0.0750341638923 -0.0119629446417 -0.0180528461933 -0.0258013345301 0.0967471897602 -0.0201917532831 -0.157308757305 0.128923118114 0.245026439428 0.131378635764 0.219351634383 0.106257945299 -0.135103732347 -0.21677531302 -0.138693585992 0.145541772246 -0.172393336892 0.103135228157 -0.0407319553196 0.140852034092 -0.0139689799398 0.148239910603 0.132449865341 -0.020295990631 -0.0204135775566 -0.146169796586 -0.0027621537447 0.203084558249 -0.171883285046 0.0644191876054 0.0566855333745 -0.166008859873 -0.161378771067 0.107739858329 -0.00195401464589 0.193571165204 0.256102442741 0.275287866592 -0.113768994808 0.0882576331496 -0.173396646976 0.000697739189491 -0.0495961271226 0.00823159329593 0.0890827178955 -0.246207639575 0.0189863964915 -0.0138677349314 0.0970086157322 0.208400472999 -0.187868013978 0.182650178671 0.0348217226565 -0.154167279601 -0.196518197656 0.059426560998 0.0141888651997 -0.0542702376842 -0.108447983861 0.0350855179131 0.0345194302499 0.0789719000459 0.0611778460443 -0.0424636490643 -0.0323060154915 0.0655029714108 0.025030663237 -0.0929214656353 -0.213276237249 -0.124902576208 0.0123720327392 -0.0240587852895 0.0965966805816 0.0498463436961 0.170421674848 -0.0158454664052 -0.191952288151 0.0310576874763 0.185817435384 -0.126416146755 -0.234620004892 0.0440590009093 -0.097504094243 0.0774415135384 0.272726505995 -0.171823933721 -0.0675584003329 -0.2305521667 -0.101887218654 -0.117657974362 -0.186968356371 0.0373074933887 -0.051655691117 -0.15366011858 -0.177563428879 0.145324379206 -0.0887380465865 0.0495366342366 0.162515327334 -0.206182867289 0.0601456388831 0.0279730465263 0.0607238225639 -0.290616899729 0.0136412903666 0.0654153004289 -0.063990175724 0.189903736115
22 0.0737669542432 -0.232711732388 0.0196014493704 -0.0216998718679 -0.13005925715 0.116529308259 -0.0902010202408 -0.118452988565 -0.180087715387 0.154676184058 -0.108089178801 -0.0707383602858 0.00292717083357 0.0927824527025 -0.211131244898 -0.0909789055586 0.0761570930481 0.102634608746 -0.0670127868652 -0.187418669462 0.0583916455507 -0.00647917902097 -0.0133457370102 -0.0194545686245 0.0785045027733 -0.0109959226102 -0.117618001997 0.107344411314 0.18821837008 0.106826305389 0.173428058624 0.0816719830036 -0.112339369953 -0.165663674474 -0.103541336954 0.112458281219 -0.141025707126 0.0880233198404 -0.0312866121531 0.108224906027 -0.0150015531108 0.119691476226 0.101313792169 -0.0127582894638 -0.0144338924438 -0.113766603172 -0.00781012978405 0.153109103441 -0.140912592411 0.0506550893188 0.0424329861999 -0.133073568344 -0.126278951764 0.0831117331982 -0.00273481244221 0.157227888703 0.201338857412 0.212157323956 -0.0931094810367 0.0727012977004 -0.133049815893 0.00288800545968 -0.0326296873391 0.00971250701696 0.0726145878434 -0.193155795336 0.0127329444513 -0.0141462525353 0.0691449046135 0.163098022342 -0.145241320133 0.143991366029 0.0267221610993 -0.12739855051 -0.152558833361 0.0503175258636 0.00803830754012 -0.040041770786 -0.0758711099625 0.026577739045 0.0275312196463 0.0630533844233 0.0482270121574 -0.0347821749747 -0.0220734383911 0.0438587330282 0.0182579699904 -0.0708485916257 -0.171172231436 -0.0968229100108 0.0106787020341 -0.0211148224771 0.0679500922561 0.0311104785651 0.129603013396 -0.0162249784917 -0.148442983627 0.0266655646265 0.14581733942 -0.101115882397 -0.179475560784 0.0332860052586 -0.0729907080531 0.0624202340841 0.210568353534 -0.137665271759 -0.0576892979443 -0.179808616638 -0.0760802328587 -0.091801315546 -0.145008131862 0.0320651978254 -0.0433989949524 -0.119520001113 -0.145513355732 0.119016155601 -0.0704199895263 0.0361312776804 0.127449050546 -0.166682392359 0.0422978810966 0.016451286152 0.0479868091643 -0.228194773197 0.0114191863686 0.0492795594037 -0.0532457008958 0.148550674319
23 0.0727467983961 -0.239351168275 0.0319141149521 -0.0111005865037 -0.127214998007 0.110449410975 -0.0880713611841 -0.108367048204 -0.180096179247 0.14539116621 -0.101677529514 -0.0648577287793 -0.00326344929636 0.0882755443454 -0.198780998588 -0.0850279480219 0.0887768939137 0.102911479771 -0.0703069418669 -0.200804695487 0.0828031823039 0.0080626308918 -0.0124664474279 -0.015696676448 0.0740280300379 -0.0214800983667 -0.128614589572 0.118996471167 0.17365655303 0.0925980657339 0.167907625437 0.0897806808352 -0.118737988174 -0.179231315851 -0.0948812812567 0.129400864244 -0.144839212298 0.0981901958585 -0.0242937598377 0.0982890948653 -0.0297766756266 0.11360860616 0.10654527694 -0.0120563199744 -0.0163380149752 -0.105926536024 -0.00989674031734 0.1624237746 -0.135758399963 0.0509271100163 0.0358877032995 -0.140708267689 -0.124757423997 0.100932985544 0.003116291482 0.159416794777 0.215159535408 0.218778163195 -0.0920246019959 0.0669172853231 -0.129519611597 -0.00052549992688 -0.0291627198458 0.00631625624374 0.0608263611794 -0.207000091672 0.0108529962599 -0.0143411140889 0.0690350532532 0.152632951736 -0.126850381494 0.170125171542 0.0182564835995 -0.138498783112 -0.156675443053 0.0513954162598 0.0188409239054 -0.05194427073 -0.0797445774078 0.0261072237045 0.0104835322127 0.0512056425214 0.0497393608093 -0.0471668094397 -0.0202496610582 0.0418934412301 0.0131011661142 -0.0632290765643 -0.171828478575 -0.102290160954 0.0274085942656 -0.0222008302808 0.063144415617 0.0324183627963 0.126587107778 -0.02446109429 -0.143761053681 0.0184042938054 0.138421595097 -0.100317984819 -0.170087456703 0.0279705487192 -0.089133888483 0.058531742543 0.228459447622 -0.128737166524 -0.071802072227 -0.179681494832 -0.0691757202148 -0.0951100662351 -0.145319476724 0.0123009998351 -0.0289192143828 -0.102220773697 -0.139088928699 0.114284031093 -0.0715321674943 0.0364973023534 0.109238125384 -0.16202031076 0.035627014935 0.0201039854437 0.051415219903 -0.240259155631 -0.00494804792106 0.0628926381469 -0.0603549294174 0.147514820099
24 0.0943510755897 -0.377175033092 0.0497371144593 -0.0163054354489 -0.182208001614 0.195632010698 -0.136740371585 -0.173435151577 -0.299754589796 0.219924390316 -0.178523123264 -0.0983830913901 -0.00543931685388 0.121726572514 -0.334489405155 -0.11650505662 0.139669731259 0.163846164942 -0.110759928823 -0.300046175718 0.125446543097 0.015247031115 -0.0251476448029 -0.0371281541884 0.105909205973 -0.0211912486702 -0.19127702713 0.168030783534 0.297493696213 0.153034165502 0.26688849926 0.151084542274 -0.179705217481 -0.28793156147 -0.163692101836 0.204115107656 -0.231466427445 0.156982317567 -0.0558214858174 0.15114313364 -0.0576974377036 0.19517813623 0.175727084279 -0.0332074575126 -0.0171950049698 -0.161594823003 -0.00133989611641 0.249970391393 -0.229829624295 0.0615674443543 0.0691869109869 -0.211957037449 -0.189882844687 0.132803216577 -0.00666859839112 0.229749247432 0.336606174707 0.358099102974 -0.149318218231 0.126143112779 -0.191965982318 0.0203323289752 -0.0412121973932 0.00543332658708 0.0728181377053 -0.334195762873 0.012900499627 -0.00355910602957 0.120269373059 0.259743690491 -0.213985741138 0.261432737112 0.0372269749641 -0.239208608866 -0.253619372845 0.0708917453885 0.0415657646954 -0.0849734321237 -0.132879376411 0.0496888794005 0.0206530503929 0.0888027846813 0.0690351724625 -0.0719114840031 -0.0232198983431 0.0559014938772 0.0290665887296 -0.0965076908469 -0.270078450441 -0.173910498619 0.0507654547691 -0.0482848212123 0.106162942946 0.0735325813293 0.20787319541 -0.026809271425 -0.242636889219 0.019738683477 0.215122789145 -0.140999272466 -0.288281828165 0.0305011235178 -0.144093379378 0.104796409607 0.374074786901 -0.207004085183 -0.0941184014082 -0.296237111092 -0.128730729222 -0.139468833804 -0.233934983611 0.0308134555817 -0.066039942205 -0.165732055902 -0.227251201868 0.180665105581 -0.107518441975 0.0617871321738 0.176291927695 -0.24322155118 0.0691500082612 0.0176462400705 0.0611848272383 -0.368666857481 -0.010317764245 0.0834361091256 -0.0837022811174 0.223410233855
25 0.149087786674 -0.508124232292 0.0604192316532 -0.0219963211566 -0.262979894876 0.246485829353 -0.211338758469 -0.217264518142 -0.367151498795 0.305998235941 -0.216756924987 -0.15113440156 -0.00328269694 0.17813038826 -0.429100394249 -0.187588021159 0.17769895494 0.214149013162 -0.149799630046 -0.421805799007 0.160053536296 0.00191031873692 -0.0234332345426 -0.0368510298431 0.159867614508 -0.0419723913074 -0.267066240311 0.238403916359 0.384210944176 0.199356019497 0.351017653942 0.196353152394 -0.244504794478 -0.379513084888 -0.215642511845 0.275213688612 -0.292099863291 0.201039597392 -0.0497242286801 0.202777460217 -0.0539317429066 0.248845160007 0.219256013632 -0.0234201680869 -0.0316432341933 -0.232726708055 -0.00354204908945 0.327901124954 -0.29763507843 0.111529879272 0.0705521553755 -0.287263274193 -0.253224730492 0.196143209934 -0.00318566756323 0.322623729706 0.436353981495 0.466433107853 -0.198876664042 0.140388056636 -0.264963269234 0.0209543015808 -0.0665941014886 0.0273630041629 0.134101003408 -0.429033786058 0.0160944629461 -0.0247960537672 0.149429544806 0.33729994297 -0.288755089045 0.331408590078 0.0382989868522 -0.285976320505 -0.324856549501 0.0978305190802 0.0332423150539 -0.111969828606 -0.168152078986 0.0612085461617 0.0310558639467 0.106038980186 0.0883786082268 -0.0859893709421 -0.0350220538676 0.100760214031 0.0316254012287 -0.137014850974 -0.367369890213 -0.205503627658 0.0364161394536 -0.037302788347 0.136609971523 0.0698156878352 0.27508944273 -0.0407467857003 -0.300451815128 0.0476352721453 0.303149491549 -0.206508234143 -0.363926947117 0.0609244741499 -0.172918975353 0.128548100591 0.47108232975 -0.273356229067 -0.148812264204 -0.381576806307 -0.158231392503 -0.174677014351 -0.308070152998 0.0478042811155 -0.0610249713063 -0.219535827637 -0.320351064205 0.24790020287 -0.151296272874 0.0637170746922 0.25420114398 -0.333950251341 0.087972432375 0.0497259497643 0.0961803942919 -0.498950123787 0.00311458599754 0.116809442639 -0.131842032075 0.301011443138
26 0.0508249849081 -0.164936840534 0.0192424431443 -0.0106239374727 -0.0838458091021 0.0726944431663 -0.0623850561678 -0.0619001165032 -0.115292176604 0.0916378945112 -0.0731190517545 -0.0416128896177 -0.00558602344245 0.0533605180681 -0.134027227759 -0.0553864613175 0.0570714510977 0.0694808959961 -0.04369173944 -0.131097525358 0.0566077791154 0.00969178322703 -0.00909471418709 -0.0119635323063 0.0493566244841 -0.0235141888261 -0.0843803733587 0.0852845385671 0.116597868502 0.0597710609436 0.113579794765 0.0684158578515 -0.079395994544 -0.124825760722 -0.0568886175752 0.0881109759212 -0.088508836925 0.0584449023008 -0.0248902570456 0.0584501847625 -0.0227460227907 0.0754421949387 0.076711550355 -0.00543966796249 -0.00568589381874 -0.0656923055649 0.00278625194915 0.112591043115 -0.0913533270359 0.0398165769875 0.0203174967319 -0.091300688684 -0.0794945955276 0.0610663034022 -0.00507625471801 0.105451874435 0.139981299639 0.146830424666 -0.0525409802794 0.0308939162642 -0.089771270752 -0.00325389392674 -0.0204781796783 0.00276344036683 0.0338515713811 -0.139827430248 0.0132254157215 -0.00252478918992 0.0526532158256 0.110263898969 -0.0888519957662 0.119850724936 0.0072376402095 -0.100558005273 -0.112720422447 0.0387967564166 0.0135086607188 -0.0380113311112 -0.0552063249052 0.0231360830367 -9.88751417026e-05 0.029748538509 0.0320028588176 -0.0397302880883 -0.0262978170067 0.0360545068979 0.00832454673946 -0.0425006896257 -0.109167374671 -0.0763780325651 0.0227447971702 -0.012003143318 0.0454948171973 0.0267191883177 0.0867111459374 -0.0214813426137 -0.0967040657997 0.00987733155489 0.0850563272834 -0.0614736974239 -0.115796998143 0.0157017465681 -0.0612614005804 0.041044794023 0.157705307007 -0.0832103192806 -0.048391930759 -0.118371844292 -0.0479712747037 -0.0683942064643 -0.103890329599 0.00770689221099 -0.016252214089 -0.0622499659657 -0.0805487036705 0.0774408131838 -0.0541256666183 0.0252513233572 0.0766563862562 -0.0940990969539 0.0275645628572 0.00828133430332 0.032805301249 -0.158244520426 -0.0121803693473 0.0461009405553 -0.0406642407179 0.0882077738643
27 0.103565439582 -0.346099644899 0.0399442724884 -0.0145718669519 -0.178768023849 0.171798586845 -0.13154065609 -0.162013202906 -0.269841641188 0.21493755281 -0.169543415308 -0.0964114367962 -0.000573679455556 0.116722993553 -0.303575962782 -0.113124996424 0.123022466898 0.154028534889 -0.0967233851552 -0.273954391479 0.109076693654 0.0098944529891 -0.00949311070144 -0.034588649869 0.104190126061 -0.0298242587596 -0.190216735005 0.164891019464 0.264458715916 0.14158128202 0.250860005617 0.136443004012 -0.162634551525 -0.26371961832 -0.144733339548 0.183788686991 -0.201800271869 0.127937301993 -0.048947326839 0.144595444202 -0.0364341139793 0.172994837165 0.15251454711 -0.0138492034748 -0.0260016620159 -0.151286110282 0.00480137951672 0.235042735934 -0.202181637287 0.0623681470752 0.063433855772 -0.196268245578 -0.180915907025 0.131586864591 0.00228688190691 0.224635481834 0.305285543203 0.327480316162 -0.126038119197 0.095858566463 -0.197005659342 0.00603676401079 -0.0493424758315 0.0096013918519 0.0828926861286 -0.297411501408 0.0198166444898 -0.00615495536476 0.11486646533 0.24097520113 -0.203635916114 0.237255930901 0.0218312963843 -0.197934702039 -0.231029704213 0.0778518617153 0.0257123801857 -0.0818690061569 -0.127205252647 0.0463346280158 0.0181943681091 0.0825448855758 0.0689599812031 -0.0699592977762 -0.0253649633378 0.0699856430292 0.0277472436428 -0.094790995121 -0.235708072782 -0.16475699842 0.0238226950169 -0.0265593901277 0.103343784809 0.0596839003265 0.190909281373 -0.0300149042159 -0.216287076473 0.0194987971336 0.193420633674 -0.138764277101 -0.267095178366 0.0399746708572 -0.130465105176 0.0883897989988 0.334549367428 -0.193291127682 -0.0946143269539 -0.260695278645 -0.1137162745 -0.140525817871 -0.222018897533 0.0311416331679 -0.0562310703099 -0.16339944303 -0.202682644129 0.169756025076 -0.114467225969 0.0491135269403 0.176865115762 -0.229626625776 0.0642757713795 0.0218063518405 0.0722458362579 -0.351642102003 -0.0103485807776 0.0834562405944 -0.0800093710423 0.214150696993
28 0.0700394064188 -0.247973069549 0.032896026969 -0.0145429521799 -0.133648827672 0.114512272179 -0.0991926118731 -0.12272978574 -0.192048534751 0.155572891235 -0.10493657738 -0.0668388009071 -0.00441551487893 0.0863006785512 -0.216366142035 -0.093979716301 0.0960936248302 0.11032731086 -0.0793346464634 -0.211908936501 0.0792255327106 0.000763011456002 -0.00856885872781 -0.0210543442518 0.0772356465459 -0.0110347438604 -0.132156684995 0.123175561428 0.189442172647 0.105069175363 0.181017413735 0.0893301591277 -0.128467962146 -0.182786777616 -0.0995849221945 0.127907246351 -0.152359187603 0.112410932779 -0.0271878801286 0.102673336864 -0.0316593796015 0.127608507872 0.109103366733 -0.0210572537035 -0.0134415067732 -0.117837533355 -0.0116153750569 0.162753716111 -0.151681482792 0.0529489554465 0.0390170812607 -0.141702756286 -0.127974569798 0.0928794816136 -0.000474251253763 0.174859791994 0.22066822648 0.230845540762 -0.10609831661 0.0789534822106 -0.125243142247 0.00932296365499 -0.0228371750563 0.0153676643968 0.0651794523001 -0.213385462761 0.0154875386506 -0.0170159675181 0.0698823705316 0.160392224789 -0.145810514688 0.169740900397 0.0237616635859 -0.143366023898 -0.160444304347 0.0534576028585 0.0202773641795 -0.0446683093905 -0.0816255882382 0.0263332929462 0.0114805614576 0.0640015378594 0.0496260672808 -0.041119966656 -0.0144271841273 0.0362575165927 0.00702005065978 -0.0755723416805 -0.187101066113 -0.109063476324 0.0292447209358 -0.0231522545218 0.06481923908 0.023241283372 0.13822568953 -0.0273760501295 -0.150348857045 0.0240081716329 0.147100090981 -0.102450922132 -0.179311171174 0.0363045819104 -0.0871454849839 0.0687004551291 0.232819423079 -0.142440572381 -0.0687494501472 -0.185180142522 -0.0761388316751 -0.0956151932478 -0.148668959737 0.022522777319 -0.0372550264001 -0.107698321342 -0.156518831849 0.135234743357 -0.0780275911093 0.032092500478 0.123125821352 -0.169787436724 0.0421015992761 0.0193624533713 0.0531330518425 -0.243932917714 0.00616371352226 0.0619815923274 -0.062072172761 0.156356751919
29 0.0724532902241 -0.27138659358 0.0530415587127 -0.0118607711047 -0.130589708686 0.130257993937 -0.111290462315 -0.130389034748 -0.190230682492 0.152847364545 -0.0909638926387 -0.0846607014537 0.00829856470227 0.099133439362 -0.235597833991 -0.12067066133 0.101222656667 0.124283820391 -0.0735817179084 -0.237742379308 0.0817703455687 -0.00556352362037 -0.0122990375385 -0.0198077149689 0.078999273479 0.00249620503746 -0.131015196443 0.119132861495 0.187016770244 0.116807132959 0.184399902821 0.116378873587 -0.128395855427 -0.206257030368 -0.110820524395 0.135735616088 -0.171657830477 0.134649559855 -0.00661700917408 0.115499518812 -0.0338698104024 0.158602550626 0.126129537821 -0.0318472310901 -0.00827693287283 -0.133715197444 -0.0154680097476 0.159442424774 -0.17326824367 0.0512220151722 0.0381127819419 -0.156956583261 -0.148697555065 0.108549751341 0.0073940679431 0.172205686569 0.234117165208 0.246247977018 -0.133782416582 0.0927448570728 -0.123581506312 0.0169896297157 -0.0137304244563 0.0161661170423 0.0743777230382 -0.226535916328 0.00380968512036 -0.0268899779767 0.0705698803067 0.168932631612 -0.141656264663 0.176337495446 0.0367723852396 -0.151988893747 -0.152672916651 0.0481037311256 0.03230169788 -0.0441354066133 -0.0760895311832 0.0267950296402 0.00917546730489 0.0572490207851 0.0587127357721 -0.0386001095176 -0.0137835582718 0.031862013042 0.00147919822484 -0.0653127729893 -0.219012245536 -0.112195298076 0.0354565083981 -0.0296878758818 0.0670044496655 0.0249887369573 0.139205902815 -0.0357943996787 -0.158078074455 0.0370138995349 0.165581062436 -0.129382535815 -0.200920626521 0.0254350453615 -0.0680085495114 0.0839986801147 0.245291426778 -0.154130667448 -0.0705097317696 -0.206664115191 -0.0770711898804 -0.0969034507871 -0.141774475574 0.0351268090308 -0.0241858381778 -0.108628422022 -0.170957833529 0.136381521821 -0.0790681540966 0.0308828577399 0.127325966954 -0.181385606527 0.0263885483146 0.0245267786086 0.0591744817793 -0.260786682367 0.0274118315428 0.065071888268 -0.0785026103258 0.169409185648
30 0.0824056565762 -0.280111402273 0.0385676547885 -0.0105898203328 -0.152146145701 0.137898817658 -0.111771419644 -0.143765091896 -0.220979467034 0.178930521011 -0.118973508477 -0.0764865279198 -0.000898764061276 0.0992923602462 -0.246890246868 -0.105408005416 0.103216104209 0.122271835804 -0.0893100053072 -0.243675932288 0.0910554528236 0.00196604058146 -0.0139632364735 -0.0236448850483 0.0903241559863 -0.0143032046035 -0.157619059086 0.137312784791 0.217362076044 0.118110537529 0.204599499702 0.0972237288952 -0.14315199852 -0.20771445334 -0.124617174268 0.147947534919 -0.171110913157 0.125091314316 -0.0308654699475 0.116982750595 -0.0299592465162 0.141654148698 0.121047459543 -0.0220234971493 -0.0158106293529 -0.132714778185 -0.0150047456846 0.187027260661 -0.166067272425 0.059070084244 0.0479371324182 -0.165679559112 -0.146824210882 0.113065779209 0.00318019930273 0.192466214299 0.255786061287 0.271050423384 -0.120063863695 0.0911771208048 -0.150549396873 0.0109629370272 -0.0360322780907 0.0130621511489 0.0780952945352 -0.241790696979 0.0105430390686 -0.0162232462317 0.0856143385172 0.185752287507 -0.165733978152 0.190982580185 0.0238149687648 -0.162686377764 -0.181220725179 0.0670741572976 0.0250532347709 -0.0542527213693 -0.0972220376134 0.0323846153915 0.0116786481813 0.0697889328003 0.0558962225914 -0.0467562489212 -0.0120803276077 0.0428279004991 0.0152437910438 -0.0857487991452 -0.211464688182 -0.117681875825 0.0260092094541 -0.0232878960669 0.0772649198771 0.0347592532635 0.15905764699 -0.0305968727916 -0.175447911024 0.0263545569032 0.169685423374 -0.119253352284 -0.205607965589 0.0422400534153 -0.102903038263 0.0775496587157 0.266106843948 -0.163097679615 -0.0774158388376 -0.217686206102 -0.0912116467953 -0.110256940126 -0.178054332733 0.0202133283019 -0.0444975048304 -0.129312515259 -0.185650870204 0.149165585637 -0.0838139355183 0.039321064949 0.141453027725 -0.19860842824 0.0500408448279 0.024575619027 0.0567250102758 -0.280764967203 -0.00014014984481 0.0646615624428 -0.0662902742624 0.182174414396
31 0.0798322036862 -0.284823030233 0.0399542301893 -0.0163470115513 -0.144187927246 0.130815416574 -0.110218837857 -0.139086022973 -0.215617030859 0.170980840921 -0.112108923495 -0.0804917067289 -0.000434768240666 0.10487729311 -0.246078401804 -0.112277254462 0.107918441296 0.127472445369 -0.0871464759111 -0.241248190403 0.0902883931994 0.00499412231147 -0.0161151625216 -0.0250355359167 0.0882690548897 -0.0122963162139 -0.147373318672 0.137233063579 0.209159046412 0.122089192271 0.202690601349 0.107646010816 -0.146373033524 -0.209332838655 -0.119826070964 0.142746120691 -0.174226179719 0.131172865629 -0.0242917984724 0.115350022912 -0.0354855619371 0.151104584336 0.12863458693 -0.0238484553993 -0.0169699285179 -0.133831366897 -0.0124181574211 0.181075826287 -0.17255987227 0.0571452490985 0.047687895596 -0.161317512393 -0.147946059704 0.110115490854 0.00309377582744 0.192512437701 0.249367207289 0.26206573844 -0.118086054921 0.0896376147866 -0.146054551005 0.012005652301 -0.0252387989312 0.0137410052121 0.0756188184023 -0.238220021129 0.0130842244253 -0.0244115628302 0.0836999863386 0.187219902873 -0.158973962069 0.191722780466 0.0305334739387 -0.161231487989 -0.177842468023 0.0590941160917 0.0224255751818 -0.0503778532147 -0.0890514031053 0.0297901593149 0.0112663814798 0.0668438822031 0.0587967000902 -0.0491475947201 -0.0155095439404 0.0419675000012 0.00975073222071 -0.0798354819417 -0.215824157 -0.123509123921 0.0318695381284 -0.0294206105173 0.0743112787604 0.0316464789212 0.151886731386 -0.0321227274835 -0.172587096691 0.0310539342463 0.167152255774 -0.123524837196 -0.2078551054 0.0377181470394 -0.0917637050152 0.0788752287626 0.267169982195 -0.158756494522 -0.0793613418937 -0.217483118176 -0.0855052173138 -0.107137769461 -0.165448069572 0.0273442715406 -0.0371136851609 -0.122445903718 -0.177652001381 0.150549039245 -0.0852355435491 0.0394400842488 0.138603329659 -0.193080618978 0.0402993150055 0.0230840742588 0.0593765601516 -0.280113190413 0.0101517420262 0.0681843757629 -0.0720538422465 0.178663939238
32 0.0628446787596 -0.186972379684 0.0219063982368 -0.0103642437607 -0.0900220125914 0.0984250754118 -0.0705307722092 -0.0841420665383 -0.151578366756 0.106862910092 -0.0855252146721 -0.0456904768944 0.00278624519706 0.0732757523656 -0.159250795841 -0.0584176778793 0.0676480680704 0.0796977058053 -0.0656642243266 -0.143102347851 0.0650822371244 0.0151047054678 -0.0184892695397 -0.0148097770289 0.0513814091682 -0.0132569596171 -0.101917289197 0.0889113470912 0.138233840466 0.0741531327367 0.130812972784 0.0807607769966 -0.0857547968626 -0.135774284601 -0.0828863382339 0.0998993366957 -0.107385143638 0.0837806463242 -0.0230352170765 0.0698849484324 -0.0338123366237 0.0930404961109 0.0918029993773 -0.0142230223864 -0.00892358273268 -0.0797570943832 -0.00722551252693 0.125417038798 -0.109142124653 0.0245629176497 0.0398977696896 -0.0978319495916 -0.091674529016 0.0582183673978 -0.00198743585497 0.110484302044 0.167749881744 0.165168851614 -0.062995672226 0.0541294775903 -0.0969183146954 0.00562033243477 -0.029913591221 0.00689631979913 0.0370450951159 -0.171678140759 0.00546182971448 -0.00674397265539 0.0524220131338 0.118317514658 -0.0925413966179 0.123593956232 0.0248796157539 -0.113651379943 -0.126332834363 0.0271361991763 0.0157621316612 -0.0515295378864 -0.072543233633 0.023508278653 0.0249278899282 0.0376760177314 0.0318022966385 -0.0322091989219 -0.0177904944867 0.0356779284775 0.0152676831931 -0.0443206056952 -0.129822865129 -0.0814771354198 0.0156163815409 -0.0286689307541 0.0561914891005 0.0337889827788 0.0926282480359 -0.00836888328195 -0.12050896138 0.0178997535259 0.106663540006 -0.0688677877188 -0.130012542009 0.00984496343881 -0.0851992890239 0.0520890243351 0.191317349672 -0.0929117873311 -0.0594242028892 -0.142962396145 -0.0654279664159 -0.0631912723184 -0.121475748718 0.0241645053029 -0.0276424773037 -0.0844341441989 -0.117068737745 0.0803965777159 -0.0494846403599 0.0272061098367 0.0747597813606 -0.123654872179 0.0304632615298 0.0203591231257 0.0337860286236 -0.188170075417 -0.0013568373397 0.0460496768355 -0.034150749445 0.10639668256
33 0.0627872645855 -0.213876456022 0.0310532655567 -0.00944750476629 -0.0993919074535 0.094332203269 -0.0750732943416 -0.0873452425003 -0.158933952451 0.113887824118 -0.0996125265956 -0.0541810281575 -0.00129229342565 0.0664662048221 -0.174167364836 -0.0622078441083 0.0785900950432 0.0881200358272 -0.0574600845575 -0.155606463552 0.0774088799953 0.0138381198049 -0.0136631941423 -0.0222478359938 0.0593582242727 -0.0279259439558 -0.112368948758 0.0977918952703 0.149030596018 0.0779728069901 0.14199899137 0.0881210118532 -0.0963396802545 -0.161453276873 -0.0840625986457 0.109392337501 -0.112468220294 0.0753157362342 -0.0304728131741 0.0811435803771 -0.0263638421893 0.100406102836 0.100859947503 -0.0111255431548 -0.0104246754199 -0.0870979502797 0.0111866788939 0.146381497383 -0.115105964243 0.0422782376409 0.0338754579425 -0.112029336393 -0.103204652667 0.0770196020603 9.77776944637e-05 0.124291904271 0.180531620979 0.195961162448 -0.0632169693708 0.0432211048901 -0.1137233302 0.00255336053669 -0.0311917569488 -0.00211916305125 0.0349224433303 -0.176240518689 0.0133507261053 -0.00279219960794 0.0737757459283 0.13721576333 -0.11362311244 0.144806936383 0.0123466178775 -0.121511422098 -0.143895298243 0.0452988743782 0.018872724846 -0.0480331592262 -0.082906357944 0.0290451832116 0.00856498256326 0.0388504862785 0.0422039814293 -0.0460276678205 -0.0220644287765 0.0502469874918 0.0148119041696 -0.0537631213665 -0.13645260036 -0.102232463658 0.0233287401497 -0.0220706574619 0.0600523911417 0.0448951423168 0.11389156431 -0.018551139161 -0.130375593901 0.0108612654731 0.103476010263 -0.0778163075447 -0.1527697891 0.0172664858401 -0.0834859535098 0.0547620952129 0.208303183317 -0.104058109224 -0.0548787489533 -0.156416371465 -0.0634951665998 -0.0850398093462 -0.136757388711 0.0115972077474 -0.0259799920022 -0.0865169018507 -0.106597952545 0.0978605002165 -0.06930436939 0.0283261463046 0.0954342037439 -0.123152688146 0.0374956168234 0.0132292909548 0.041727039963 -0.208257958293 -0.0129889892414 0.0577969476581 -0.0413968935609 0.119898676872
34 0.0704740211368 -0.168858855963 0.0261223446578 -0.0174238532782 -0.0771201252937 0.0700472742319 -0.0691648200154 -0.0655388981104 -0.128450810909 0.0954128354788 -0.109977327287 -0.0501210391521 0.0149297686294 0.0568438023329 -0.139113992453 -0.044588599354 0.0466704331338 0.0726648718119 -0.0653232187033 -0.106767065823 0.0733367204666 -0.0312380250543 0.020221626386 -0.0329573862255 0.0500526428223 -0.0326795466244 -0.102225728333 0.0752406269312 0.115769594908 0.0731532797217 0.123089201748 0.0587866380811 -0.0696598738432 -0.113148644567 -0.0642493590713 0.0911433473229 -0.103282719851 0.0451182052493 -0.021661195904 0.0574782639742 -0.00811181683093 0.0906964018941 0.0647455602884 0.0140992105007 -0.0197011809796 -0.0934921354055 0.00792350247502 0.104844614863 -0.102373689413 0.0406521745026 0.0122044812888 -0.0860052779317 -0.0811336487532 0.0725617259741 0.00164545804728 0.106248825788 0.127993494272 0.149409666657 -0.0383416227996 0.0194976702332 -0.0994099229574 0.00976690929383 -0.00810698606074 -0.00984643492848 0.0263365395367 -0.11722292006 0.0260157175362 0.0103573398665 0.0414044074714 0.116270318627 -0.119210168719 0.0877724736929 0.00586973596364 -0.0757341235876 -0.111890725791 0.0562420487404 0.023693209514 -0.0282230172306 -0.0650732442737 0.0122987832874 0.0259235613048 0.0304369125515 0.0098294718191 -0.0102890189737 0.00226938026026 0.0515910349786 0.0139449071139 -0.0544808655977 -0.0817922204733 -0.0658637434244 -0.00759620312601 0.0013264764566 0.0484834425151 0.0478254929185 0.101332679391 -0.0277466252446 -0.109728761017 0.00423378823325 0.0787859559059 -0.0760717093945 -0.13082331419 0.0273576155305 -0.0395431816578 0.0408771373332 0.132103651762 -0.0944222807884 -0.0396494120359 -0.138838991523 -0.0470539629459 -0.062667876482 -0.115490399301 0.0475338771939 -0.0228860378265 -0.0902204662561 -0.109783515334 0.0884721204638 -0.0713694617152 -0.00937645230442 0.10303106904 -0.104786284268 0.0331392213702 0.0164700876921 0.028964355588 -0.158852249384 0.0112068438902 0.0421286262572 -0.0411210469902 0.118268027902
35 0.0708893314004 -0.163858622313 0.0251033604145 -0.0186884272844 -0.0725423917174 0.0637227222323 -0.0642381161451 -0.0612999908626 -0.122655652463 0.0879826024175 -0.106234751642 -0.051208473742 0.0170531980693 0.0560191571712 -0.132731482387 -0.0404568575323 0.0464337468147 0.0687826648355 -0.0623320303857 -0.0959903001785 0.0748765170574 -0.0310623012483 0.0215144269168 -0.0330113992095 0.0454545095563 -0.033942759037 -0.100062265992 0.0723480209708 0.107832692564 0.0718846470118 0.120446681976 0.0595636740327 -0.0647113770247 -0.111531227827 -0.0578593276441 0.088007569313 -0.101209327579 0.042397685349 -0.0214351862669 0.0551260337234 -0.00802704971284 0.0919559597969 0.0656522363424 0.0119199035689 -0.0191042926162 -0.0932844057679 0.0105568720028 0.0998610109091 -0.0982904881239 0.0392112880945 0.0111237242818 -0.0789961963892 -0.0751144886017 0.0699509084225 0.00407982105389 0.100598663092 0.118536829948 0.141247600317 -0.0330879352987 0.0135828470811 -0.0952483713627 0.0112920291722 -0.00353713845834 -0.0107441451401 0.0219704005867 -0.107293695211 0.0298420824111 0.00639047054574 0.0387262739241 0.111502811313 -0.115529239178 0.0848051309586 0.00464512081817 -0.0713208690286 -0.107232749462 0.0541578754783 0.0233275406063 -0.0234003346413 -0.0630798563361 0.00983941368759 0.0255796089768 0.0305914524943 0.0112987626344 -0.007007305976 0.00326736341231 0.0512103326619 0.0120006557554 -0.0533473305404 -0.0744557455182 -0.0670811235905 -0.00499710300937 0.00386192370206 0.0493342503905 0.0491920337081 0.0974779576063 -0.0292783491313 -0.107053652406 0.00343451136723 0.0700014904141 -0.0722450390458 -0.130273371935 0.0251939371228 -0.0356073006988 0.0415096729994 0.125048160553 -0.0874688923359 -0.0356959477067 -0.134133845568 -0.0414631515741 -0.0614155828953 -0.113927036524 0.0509202219546 -0.0223226584494 -0.0875760316849 -0.103214949369 0.0851007401943 -0.0734873861074 -0.0110865589231 0.0976198166609 -0.0955590307713 0.0296810790896 0.0156507175416 0.0310055091977 -0.155189916492 0.0126870255917 0.0429865419865 -0.0370305813849 0.118619218469
36 0.0902864038944 -0.325724452734 0.0484882183373 -0.0163048580289 -0.167426094413 0.15663023293 -0.132867082953 -0.162501558661 -0.241405531764 0.201407641172 -0.129746109247 -0.0979028940201 0.00203536241315 0.119234569371 -0.289341032505 -0.138724222779 0.124401755631 0.150960788131 -0.0997827872634 -0.288183063269 0.0974498540163 0.00250853179023 -0.015737760812 -0.0280906651169 0.108650423586 -0.00714512588456 -0.164811819792 0.160404771566 0.236951500177 0.143156647682 0.234857648611 0.128856152296 -0.168378353119 -0.244173318148 -0.140010625124 0.16348862648 -0.206212565303 0.15607701242 -0.027684038505 0.137064963579 -0.0414572581649 0.183958292007 0.148852556944 -0.0241963602602 -0.0144118890166 -0.158426940441 -0.0161417461932 0.204856857657 -0.20755071938 0.0664393007755 0.0501824505627 -0.194885984063 -0.178062736988 0.129120603204 0.00546098686755 0.221888467669 0.292005747557 0.308436214924 -0.145066514611 0.106472142041 -0.165815398097 0.0156543515623 -0.0284472256899 0.0169236399233 0.0911422297359 -0.278832137585 0.0116539830342 -0.0244784317911 0.0946875438094 0.216574251652 -0.185937106609 0.218515396118 0.0311889946461 -0.191233322024 -0.201906785369 0.0712831839919 0.025429232046 -0.062675639987 -0.09761030972 0.0404192730784 0.0118314167485 0.0705067291856 0.0665880963206 -0.0581015273929 -0.0167775955051 0.0442478395998 0.0112956529483 -0.0882630869746 -0.257208764553 -0.146966189146 0.0357989668846 -0.0328628867865 0.082137838006 0.0333155356348 0.176288977265 -0.0420552864671 -0.199953049421 0.0453390330076 0.197540685534 -0.147113308311 -0.241761773825 0.0438804812729 -0.0967773124576 0.0938039422035 0.304776489735 -0.186645582318 -0.0911717265844 -0.2526948452 -0.095926694572 -0.12625618279 -0.192165151238 0.036730427295 -0.0411031655967 -0.143193110824 -0.210392668843 0.178808704019 -0.0986472219229 0.0426127314568 0.164502471685 -0.225498512387 0.0423059761524 0.0284530296922 0.0717147216201 -0.321787059307 0.0105909369886 0.0729078054428 -0.0928030908108 0.20668618381
37 0.0376962870359 -0.156479671597 0.0411191061139 0.000806022668257 -0.0651143118739 0.0794909968972 -0.0692763179541 -0.0723204687238 -0.0980668962002 0.0792977362871 -0.042383402586 -0.0543459653854 0.0108405472711 0.0576828494668 -0.138698831201 -0.0792218223214 0.058554276824 0.0746627226472 -0.0371500514448 -0.140883311629 0.04184987396 -0.00522159924731 -0.00824110023677 -0.0105369649827 0.0433529056609 0.0111034847796 -0.0684297159314 0.0612727254629 0.0974804461002 0.0660631135106 0.0978229865432 0.0759465172887 -0.0694069713354 -0.124308124185 -0.0658015310764 0.0789061263204 -0.0992417484522 0.0856656879187 0.00874121394008 0.0649455860257 -0.0217879656702 0.100990958512 0.0765819400549 -0.0230517014861 0.00143556133844 -0.0758080780506 -0.00921480637044 0.0787685886025 -0.10832183063 0.0233075208962 0.0202429722995 -0.0925476402044 -0.0892916321754 0.0661089345813 0.00916020944715 0.0895223841071 0.131580397487 0.14359781146 -0.0877603292465 0.0594390630722 -0.0621224530041 0.01910321787 -0.00318929878995 0.00681339995936 0.0431608594954 -0.130972951651 -0.00526055879891 -0.017679926008 0.0393579974771 0.095467120409 -0.0743340626359 0.0957558304071 0.026245791465 -0.0908065736294 -0.0745473131537 0.0227540489286 0.0257085096091 -0.0232688039541 -0.034385509789 0.0177137628198 0.000208924990147 0.0211792998016 0.0322989858687 -0.0203534588218 -0.00171040173154 0.0120712155476 -0.00276345293969 -0.0282001625746 -0.136286884546 -0.0632266029716 0.0210041571409 -0.0162517204881 0.0339178778231 0.0151058994234 0.0766924992204 -0.0270501486957 -0.0888244211674 0.028362525627 0.0956041812897 -0.0846726968884 -0.117772735655 0.0076594138518 -0.0255413707346 0.0527637973428 0.136376276612 -0.0878406763077 -0.0376356914639 -0.122593663633 -0.0386626906693 -0.0498914681375 -0.0679514333606 0.0274854525924 -0.00516430009156 -0.0538390651345 -0.101850129664 0.0764071494341 -0.0421210601926 0.0124542070553 0.0731176137924 -0.101126298308 0.00422198697925 0.0151246991009 0.0340302139521 -0.146673053503 0.0267040170729 0.0301482882351 -0.0557511299849 0.0945407822728
38 0.052819699049 -0.200628876686 0.026390677318 -0.0178050529212 -0.10783123225 0.0973904803395 -0.0810917541385 -0.103854425251 -0.160988122225 0.130522847176 -0.0843409746885 -0.0497924759984 -0.00270019751042 0.0685624703765 -0.174696594477 -0.0770219042897 0.0769224464893 0.0946862027049 -0.0661835223436 -0.175700560212 0.0664505660534 -0.00019612244796 -0.00404118094593 -0.0128903603181 0.060185495764 -0.00650203600526 -0.104803964496 0.101282119751 0.153333246708 0.0864448994398 0.150854155421 0.0720795318484 -0.107224807143 -0.144827619195 -0.0800747275352 0.106458052993 -0.129086568952 0.0930265858769 -0.0223254989833 0.0852118358016 -0.023720882833 0.110201090574 0.0921958386898 -0.0185054484755 -0.0132770417258 -0.0939631089568 -0.0105800945312 0.134640455246 -0.12296526134 0.0416712909937 0.0306868441403 -0.115827895701 -0.108187273145 0.0762833580375 -0.00143086106982 0.141599357128 0.181674480438 0.182022169232 -0.0924568250775 0.0652899369597 -0.103083975613 0.00882032420486 -0.0163252707571 0.0116231767461 0.0532782152295 -0.171575844288 0.00861255638301 -0.0159065239131 0.0547573678195 0.130274042487 -0.116546578705 0.140545964241 0.0219147857279 -0.114931508899 -0.129028841853 0.0400228351355 0.0173637662083 -0.0408516451716 -0.0685637295246 0.0230090077966 0.0086331544444 0.0565161556005 0.0445352569222 -0.0278476439416 -0.0176877006888 0.0290617588907 0.00450395978987 -0.062954813242 -0.153836980462 -0.0904829949141 0.025466458872 -0.0240279920399 0.0534159094095 0.0216192305088 0.106953859329 -0.0235582794994 -0.119531556964 0.0186469331384 0.121310681105 -0.085339538753 -0.147633656859 0.027764223516 -0.064888946712 0.0544141493738 0.1860422194 -0.120362900198 -0.0557597316802 -0.15435680747 -0.0641433000565 -0.0770464912057 -0.118915729225 0.0209528245032 -0.0263962913305 -0.0858032479882 -0.128262028098 0.1085293293 -0.066132247448 0.0236654020846 0.0989811122417 -0.141417011619 0.0364903956652 0.0168064627796 0.0384538881481 -0.198598340154 0.00869553722441 0.0527407303452 -0.0542430840433 0.125591531396
39 0.062516450882 -0.226472169161 0.0359015502036 -0.00958220567554 -0.115546680987 0.108751617372 -0.0923663824797 -0.112566828728 -0.16705545783 0.1387373209 -0.0819366797805 -0.069809935987 0.00388338929042 0.0841786935925 -0.20596203208 -0.100563943386 0.0869404375553 0.109787844121 -0.0694923251867 -0.206950157881 0.0649728178978 0.00517627736554 -0.0196029376239 -0.0173054058105 0.0762561410666 0.000230670208111 -0.1103701666 0.113040499389 0.159831091762 0.102101564407 0.164903402328 0.0921213924885 -0.116303883493 -0.172545582056 -0.0978701636195 0.109687551856 -0.149710699916 0.117763705552 -0.0179485101253 0.097309358418 -0.0331789255142 0.134335249662 0.104104422033 -0.022151760757 -0.00607416778803 -0.109639801085 -0.0163393579423 0.135606229305 -0.145156562328 0.0405149497092 0.0341290980577 -0.139281466603 -0.127350658178 0.0906932875514 0.00327569665387 0.15458907187 0.208223819733 0.217314884067 -0.105930417776 0.0815750733018 -0.115156374872 0.011431099847 -0.0167094394565 0.0121739590541 0.0686852931976 -0.195315048099 0.00595373474061 -0.021768881008 0.06533446908 0.152366042137 -0.124797195196 0.154185205698 0.0254018176347 -0.140494018793 -0.132659912109 0.0474322065711 0.0199945829809 -0.0421494245529 -0.0623138062656 0.0322167277336 0.0022725078743 0.0464990362525 0.0500170513988 -0.0445080809295 -0.0121398679912 0.021278463304 0.00633125193417 -0.0559671260417 -0.188997641206 -0.106289476156 0.028722371906 -0.0244120620191 0.0562271662056 0.0248619262129 0.11850862205 -0.0332275778055 -0.141854345798 0.0368301421404 0.138013124466 -0.104739390314 -0.170595362782 0.0300012230873 -0.0580724366009 0.0716336369514 0.211682409048 -0.128454387188 -0.0616512596607 -0.176779538393 -0.0623784661293 -0.0885690003633 -0.123023122549 0.0281809940934 -0.0280809998512 -0.097486898303 -0.144746497273 0.126130849123 -0.0606584697962 0.0328953899443 0.114795610309 -0.153087407351 0.02145765163 0.0184070281684 0.0493201129138 -0.226188033819 0.0146277518943 0.045423027128 -0.0712198987603 0.146045476198
40 0.0550980679691 -0.216417089105 0.0385530106723 -0.00860460661352 -0.106623440981 0.103397890925 -0.0888713523746 -0.10710927099 -0.155130848289 0.132579997182 -0.0774960070848 -0.0666168630123 0.00238037854433 0.0802723690867 -0.189347520471 -0.0948067829013 0.0818653553724 0.0997422412038 -0.0595651045442 -0.190361484885 0.0681544244289 -0.00345730199479 -0.00757993245497 -0.0129084568471 0.0644059851766 0.00146358599886 -0.109137810767 0.0957493856549 0.154039263725 0.0930759310722 0.149758636951 0.0839730426669 -0.110562182963 -0.164127230644 -0.0884690061212 0.110948577523 -0.139883071184 0.102579064667 -0.00815736781806 0.093547873199 -0.0227544046938 0.122981369495 0.0980680733919 -0.0239252056926 -0.0119459303096 -0.102842539549 -0.00673807272688 0.128564700484 -0.137790322304 0.041229005903 0.0344260819256 -0.128597304225 -0.119987823069 0.0882381647825 0.00677626067773 0.143057093024 0.185949712992 0.19919988513 -0.105683915317 0.07265175879 -0.107027441263 0.01650923118 -0.0136518925428 0.0127132656053 0.0636908188462 -0.176801145077 0.00274765514769 -0.0254483949393 0.0618483349681 0.140988513827 -0.11630500108 0.143821969628 0.026559362188 -0.119120538235 -0.122858703136 0.0395825169981 0.0213588830084 -0.0360791347921 -0.0595750361681 0.020437899977 0.00123753224034 0.050483006984 0.0492733940482 -0.0313703231514 -0.00957534089684 0.0255690682679 0.00106850231532 -0.0575391985476 -0.173023566604 -0.0915499404073 0.0225489046425 -0.0187975279987 0.0516212508082 0.0228354986757 0.113196276128 -0.0325542986393 -0.123644210398 0.0254677888006 0.129587769508 -0.10420960933 -0.16364441812 0.0273926686496 -0.0550845488906 0.0589214414358 0.196232408285 -0.12657353282 -0.0573649220169 -0.168220549822 -0.0610686950386 -0.0791074186563 -0.111936941743 0.0261794496328 -0.0172610040754 -0.0853239893913 -0.13765630126 0.11365480721 -0.0689676702023 0.0262650493532 0.107217371464 -0.150396972895 0.0233879610896 0.0195969045162 0.0475974790752 -0.215270355344 0.0202234759927 0.0504805073142 -0.0647440180182 0.138489156961
41 0.0683147236705 -0.248994067311 0.0308508109301 -0.0167116448283 -0.134432017803 0.120543919504 -0.0984108820558 -0.122404299676 -0.192875236273 0.157250493765 -0.104624576867 -0.0700512602925 0.000819355074782 0.0874493345618 -0.216969013214 -0.0972293019295 0.09587931633 0.113539099693 -0.0797600895166 -0.214848175645 0.0767736509442 0.00286404276267 -0.0114767393097 -0.0184113681316 0.0794932469726 -0.0121431034058 -0.126136109233 0.124726869166 0.186759993434 0.106146737933 0.183671250939 0.0931182652712 -0.129024714231 -0.183274820447 -0.103230558336 0.131329834461 -0.155975624919 0.110426232219 -0.0280893053859 0.107111759484 -0.0322079509497 0.133843764663 0.114465378225 -0.0172916278243 -0.0147977368906 -0.117027968168 -0.0132861994207 0.163811147213 -0.151232525706 0.0521691851318 0.0367245152593 -0.145471259952 -0.131270140409 0.0971752405167 0.000957637326792 0.170927032828 0.225564241409 0.228229776025 -0.108004800975 0.0814114436507 -0.127877816558 0.00827751494944 -0.0223634187132 0.0104306163266 0.0652610063553 -0.214008525014 0.00931044574827 -0.017352566123 0.0672704428434 0.163715451956 -0.144033014774 0.169551894069 0.0257565546781 -0.147410362959 -0.157728999853 0.0503062270582 0.0189740564674 -0.049602676183 -0.078403711319 0.0333149805665 0.0147303221747 0.0608126781881 0.052513435483 -0.0419837757945 -0.0167085081339 0.038054831326 0.00924457143992 -0.0726164355874 -0.190669983625 -0.112192481756 0.0302242022008 -0.0257780458778 0.0663279443979 0.0295106992126 0.133350461721 -0.026428854093 -0.149555966258 0.028011277318 0.151800855994 -0.104564711452 -0.18321543932 0.0325310043991 -0.0818940401077 0.0690640732646 0.23053394258 -0.140837654471 -0.0678959041834 -0.191407337785 -0.0722430869937 -0.0960648208857 -0.147983148694 0.0269344504923 -0.0354551263154 -0.107499159873 -0.156675234437 0.132850855589 -0.0743827521801 0.0335745252669 0.123249731958 -0.171813100576 0.0383049026132 0.020809603855 0.0521764010191 -0.244032844901 0.00530903274193 0.0591694191098 -0.0692382976413 0.155933499336
42 0.0726149827242 -0.271460205317 0.055913336575 -0.00845909211785 -0.127062186599 0.128816768527 -0.109306998551 -0.133113667369 -0.187424182892 0.149556055665 -0.0859162807465 -0.0873036384583 0.00983220245689 0.103377699852 -0.235187113285 -0.121411196887 0.101227588952 0.124147161841 -0.0670267641544 -0.234754115343 0.0779440402985 -0.0041829305701 -0.0131102688611 -0.0198752172291 0.0768351703882 0.00490257563069 -0.131644070148 0.114199273288 0.18322609365 0.117235794663 0.181744873524 0.117254011333 -0.125931665301 -0.208226129413 -0.111201301217 0.134901374578 -0.169177994132 0.134890347719 -0.0010541267693 0.11559651047 -0.0301827639341 0.157589182258 0.129203885794 -0.0356947742403 -0.00774489436299 -0.130767673254 -0.0146289467812 0.154096141458 -0.17362318933 0.0482923872769 0.042391281575 -0.154391691089 -0.149633198977 0.111320488155 0.0130367707461 0.167470425367 0.229503065348 0.245126128197 -0.133812025189 0.092148900032 -0.12578330934 0.020286699757 -0.0154931368306 0.0132174622267 0.0770732536912 -0.222167059779 0.00364130130038 -0.0326336808503 0.073458366096 0.170198515058 -0.13740631938 0.174114570022 0.0387667194009 -0.147515073419 -0.146737858653 0.0457907356322 0.0317657254636 -0.0403433665633 -0.0726909115911 0.0252954941243 0.00601044856012 0.0540331378579 0.0594004765153 -0.0362379439175 -0.00979452487081 0.0306150242686 0.00307030696422 -0.0642857551575 -0.2207249403 -0.11157874018 0.0341508090496 -0.0267389211804 0.0667727068067 0.0252664256841 0.137158840895 -0.0391048677266 -0.157214447856 0.0384319797158 0.162054017186 -0.13420112431 -0.204060703516 0.0235831215978 -0.0640714019537 0.0823498666286 0.242674276233 -0.152862221003 -0.0677776932716 -0.206590592861 -0.0744338408113 -0.0966554582119 -0.137144207954 0.0366933532059 -0.0214146841317 -0.106999628246 -0.170654982328 0.133514940739 -0.0803278982639 0.0311110187322 0.127365127206 -0.180260881782 0.0203759111464 0.0247991681099 0.0623523779213 -0.260096341372 0.0302819479257 0.0622422099113 -0.0785142853856 0.171142727137
43 0.0505406670272 -0.188440620899 0.0540683045983 0.00241308053955 -0.0724864006042 0.0908094495535 -0.0677876919508 -0.0898275598884 -0.10668374598 0.0810984671116 -0.0251153931022 -0.0742912963033 0.0158917810768 0.0851483270526 -0.157535299659 -0.0933397188783 0.0686114728451 0.0835740715265 -0.0216968767345 -0.156913280487 0.0467890165746 -0.0150434225798 -0.0125342635438 -0.00507432548329 0.0421486198902 0.0227812696248 -0.0878191441298 0.0518972761929 0.1124355793 0.07989166677 0.110933095217 0.0942784920335 -0.0664930343628 -0.155998334289 -0.0826530531049 0.0926465839148 -0.11896687746 0.102137170732 0.0336813032627 0.0886758416891 -0.0181135199964 0.120416805148 0.0958239585161 -0.0450171381235 -0.00120011623949 -0.0935481786728 -0.0194356068969 0.0889762714505 -0.118894256651 0.0224832538515 0.0346886254847 -0.103595554829 -0.100280508399 0.0867193117738 0.0260877609253 0.0923953801394 0.139409303665 0.156979873776 -0.111210003495 0.0757543593645 -0.0706318318844 0.0206968970597 -0.00223696767353 0.00591786298901 0.0578070767224 -0.14186348021 -0.00336447870359 -0.0388895459473 0.0454795360565 0.107679389417 -0.0695484355092 0.104932785034 0.0429878681898 -0.0864920765162 -0.0740091502666 0.0151383783668 0.0304861590266 -0.0176579132676 -0.0392529964447 0.00570204854012 0.00309368735179 0.0244449041784 0.046602267772 -0.00870868656784 0.003940586932 0.00990552268922 -0.00137078808621 -0.0328197181225 -0.165989205241 -0.0622028373182 0.0298779644072 -0.0112797701731 0.0490710586309 0.0176541078836 0.0833522975445 -0.0308513753116 -0.100535832345 0.0359807983041 0.121159285307 -0.112456306815 -0.152038246393 0.00315385358408 -0.024143114686 0.0630665197968 0.159289926291 -0.0958017110825 -0.0350184217095 -0.145929530263 -0.045215241611 -0.050462089479 -0.0667196139693 0.0354414097965 -0.00217251316644 -0.0677457153797 -0.116972073913 0.0726783275604 -0.0453864000738 0.0255626812577 0.0748121067882 -0.11828507483 -0.0109128160402 0.0327363647521 0.0480084754527 -0.171162620187 0.0444249361753 0.0374098643661 -0.0595597028732 0.126676782966
44 0.0226348750293 -0.107315979898 0.0113168135285 -0.000526792020537 -0.0601311586797 0.0571119263768 -0.0441864840686 -0.0556899979711 -0.0883039459586 0.071452960372 -0.0488566458225 -0.0351514518261 -0.0010489737615 0.0347543023527 -0.108377918601 -0.0483863949776 0.0454962514341 0.0533760115504 -0.0422435626388 -0.107584156096 0.0272209569812 0.012733027339 -0.0197872258723 -0.0218923427165 0.0505418926477 0.00160659267567 -0.0500340722501 0.0615687333047 0.0781650170684 0.0552588924766 0.0849367529154 0.045614130795 -0.0660405755043 -0.0862022340298 -0.0600557327271 0.0486973002553 -0.080896884203 0.0628440752625 -0.0232837274671 0.0480274409056 -0.0225938893855 0.0640027672052 0.0454300791025 -0.00459099188447 0.000940660946071 -0.0541777797043 -0.010885020718 0.0576662160456 -0.0777992904186 0.0168386269361 0.0171329751611 -0.0758626908064 -0.0639059394598 0.042936861515 -0.00112787378021 0.0826665908098 0.116900138557 0.127719551325 -0.0454490557313 0.0460771545768 -0.0608547106385 0.00157388939988 -0.010836776346 0.00895374640822 0.0318927392364 -0.0985500663519 0.000965790008195 -4.15779650211e-05 0.0388176478446 0.0921571403742 -0.0629057958722 0.0775120034814 0.00628224108368 -0.0832280665636 -0.0684343054891 0.0349236577749 0.00707361474633 -0.0259993840009 -0.0246331989765 0.0271506048739 -0.00258528301492 0.0141561757773 0.0216892324388 -0.0377729199827 0.00491778273135 0.00153303192928 0.0126234069467 -0.020993527025 -0.0964840203524 -0.0615975745022 0.0102903395891 -0.0167558789253 0.023033445701 0.0156107349321 0.0667457059026 -0.0182352177799 -0.0774900019169 0.0205390043557 0.0754610747099 -0.0403270982206 -0.0804914236069 0.0227685719728 -0.0282242074609 0.0400739088655 0.111725777388 -0.0569939538836 -0.0273618549109 -0.0924246013165 -0.0292330067605 -0.0489588417113 -0.064254745841 0.0111366827041 -0.0227711889893 -0.052012719214 -0.0788152590394 0.0779239684343 -0.0143078621477 0.0269514210522 0.0652129873633 -0.0765499323606 0.00822522304952 0.00156857958063 0.0167880039662 -0.111151769757 -0.0109434258193 0.0138100236654 -0.0379557460546 0.0790125951171
45 0.095468275249 -0.334669023752 0.0428376868367 -0.00612516049296 -0.182442292571 0.180104792118 -0.145452767611 -0.166857376695 -0.251328915358 0.224865198135 -0.162223622203 -0.105543844402 0.00337985530496 0.114270269871 -0.30330106616 -0.128879129887 0.107242614031 0.139271751046 -0.108446717262 -0.285241186619 0.0891317501664 -0.0135362334549 -0.00243767653592 -0.0412030145526 0.113861083984 -0.0254916250706 -0.182669132948 0.153929516673 0.275796353817 0.13986094296 0.242384254932 0.118700347841 -0.166273742914 -0.242436826229 -0.156765729189 0.17169983685 -0.185615971684 0.11678994447 -0.0382032878697 0.146525233984 -0.0212880298495 0.157318398356 0.13794927299 -0.00906024500728 -0.0287141930312 -0.164095968008 -0.00783597957343 0.227638542652 -0.201746255159 0.0813204273582 0.05187484622 -0.196936905384 -0.168121248484 0.136255562305 0.00112391577568 0.222816854715 0.302444159985 0.323472708464 -0.13121125102 0.109387531877 -0.183917403221 0.0170009471476 -0.0479450263083 0.0151358861476 0.102409645915 -0.284064054489 0.00732583319768 -0.00352469249628 0.0937066227198 0.237290605903 -0.22592702508 0.202151566744 0.023499796167 -0.178869649768 -0.220954328775 0.0816958546638 0.019925121218 -0.0638201385736 -0.108993247151 0.0352977998555 0.0375316850841 0.0816329047084 0.045990858227 -0.05997190997 -0.00317155849189 0.0753799676895 0.0363226532936 -0.101033270359 -0.243118748069 -0.126807719469 0.0116413179785 -0.0131118427962 0.0926005840302 0.0432080589235 0.195056423545 -0.0140063855797 -0.198674365878 0.0316015295684 0.212324723601 -0.140469640493 -0.254684448242 0.0516176782548 -0.127685040236 0.0823491215706 0.31011530757 -0.204284310341 -0.0925918295979 -0.25924667716 -0.113122031093 -0.122599937022 -0.220643952489 0.0267776492983 -0.0573080182076 -0.16486030817 -0.233519285917 0.175948441029 -0.102467805147 0.0398584455252 0.189103186131 -0.244976446033 0.0649584308267 0.0386008433998 0.0765299126506 -0.326060712337 -0.00893374532461 0.0690239816904 -0.081974260509 0.214630126953
46 0.0515127182007 -0.189236298203 0.0248198676854 -0.0073665548116 -0.102935902774 0.0934741869569 -0.0783921927214 -0.101277470589 -0.142173022032 0.124700665474 -0.0884564220905 -0.0579080246389 0.00415886752307 0.0752893388271 -0.172651156783 -0.079712048173 0.0656149536371 0.0826978981495 -0.0611974671483 -0.166991382837 0.0583438426256 0.00153730087914 -0.0139544941485 -0.0107865333557 0.0650120303035 -0.00881968811154 -0.0991463512182 0.0859655737877 0.15189088881 0.083076775074 0.136631846428 0.0648106858134 -0.101028822362 -0.135816425085 -0.085388712585 0.0953566879034 -0.109870553017 0.0787000656128 -0.0185804441571 0.0830034390092 -0.0180895682424 0.0915118083358 0.0799299925566 -0.00432609673589 -0.0130232451484 -0.0874190554023 -0.00694778095931 0.131151080132 -0.118417426944 0.0457538813353 0.0346907190979 -0.115226611495 -0.100706532598 0.0673798173666 -0.0028733543586 0.127506390214 0.166863799095 0.175984919071 -0.0774192139506 0.0621172077954 -0.108137667179 0.0093039162457 -0.0261387433857 0.00699467258528 0.0580774992704 -0.16793397069 -0.00187983049545 -0.0103805381805 0.0568693168461 0.127362906933 -0.116357959807 0.122733607888 0.0165801085532 -0.108006998897 -0.127143710852 0.0423323102295 0.00604039803147 -0.0362491644919 -0.0604344159365 0.0215093046427 0.0165273994207 0.0460179895163 0.028950529173 -0.0369457565248 -0.00886859372258 0.0361478254199 0.0142426621169 -0.058231279254 -0.145260930061 -0.0734525620937 0.0120831094682 -0.017962789163 0.0428626053035 0.0185479503125 0.102456651628 -0.0153044238687 -0.112309813499 0.0236732494086 0.110613524914 -0.0824433788657 -0.141540333629 0.0205530300736 -0.0730311945081 0.0461199246347 0.184727013111 -0.117219686508 -0.0636114031076 -0.143743723631 -0.0649274364114 -0.0735790580511 -0.12144382298 0.0101928086951 -0.0294424109161 -0.0899043902755 -0.129857495427 0.0982610136271 -0.064243145287 0.0235978383571 0.100605607033 -0.142772004008 0.0315399467945 0.014671404846 0.0495510883629 -0.186915576458 -0.0033459556289 0.0392996743321 -0.0424435921013 0.112483173609
47 0.0495497621596 -0.158292427659 0.0186999198049 -0.01694319956 -0.0851257890463 0.0788881331682 -0.0636125355959 -0.0753069594502 -0.113999016583 0.100345991552 -0.0696356445551 -0.0471825152636 7.01557728462e-05 0.0589232295752 -0.134309738874 -0.0640268921852 0.0502318032086 0.0657132491469 -0.0486541613936 -0.132474273443 0.0483200512826 -0.00403665052727 -0.0036533321254 -0.0157688222826 0.0516908690333 -0.0122522246093 -0.0796972215176 0.0758899599314 0.122784554958 0.0724249780178 0.112526006997 0.0608749240637 -0.0808599442244 -0.106803067029 -0.0670360773802 0.0774370133877 -0.0950039252639 0.0613199882209 -0.0196241438389 0.0657795220613 -0.0154857812449 0.0799442604184 0.0675781294703 -0.00580433802679 -0.0107424939051 -0.080643735826 -0.00853912252933 0.102236919105 -0.0966746807098 0.0412462837994 0.0254030227661 -0.089925467968 -0.0821375474334 0.0586647279561 -0.00174327194691 0.103472113609 0.138029903173 0.138746768236 -0.0583931915462 0.043363250792 -0.0821565762162 0.00341758830473 -0.0160332396626 0.012557124719 0.0434602573514 -0.131516605616 0.00627163145691 -0.00823568273336 0.0387214571238 0.102777451277 -0.0951804593205 0.100149132311 0.0156749635935 -0.084933578968 -0.109896697104 0.0355609841645 0.00880323816091 -0.030966937542 -0.0510064736009 0.0162696763873 0.0209633987397 0.0409458130598 0.0243801642209 -0.0235123429447 -0.0147424507886 0.0288944467902 0.0148408301175 -0.0417931713164 -0.114560060203 -0.0544522590935 0.0145827140659 -0.0154810631648 0.0413908436894 0.0137594323605 0.0803244411945 -0.00480360910296 -0.0919504836202 0.0136242378503 0.0995092689991 -0.0643069520593 -0.112169653177 0.0185786820948 -0.0548847615719 0.0426205135882 0.144449710846 -0.0943848267198 -0.0466337092221 -0.118407964706 -0.0532876998186 -0.0586272142828 -0.103194095194 0.0175498500466 -0.0238413214684 -0.0772683769464 -0.103279717267 0.0773838683963 -0.04922176525 0.018588097766 0.0780909955502 -0.112150728703 0.0299605764449 0.0140176285058 0.0317653827369 -0.150109305978 0.00232852553017 0.0407029688358 -0.0353603586555 0.0936841964722
